svm_type c_svc
kernel_type linear
nr_class 2
total_sv 2136
rho -0.3572773037646599
label 1 2
probA -0.10468834361527182
probB 0.033395970525244095
nr_sv 1058 1078
SV
0.021325929951503154 1:4.3847016 2:6.7360769 3:3.9634882 4:0.5 5:1.0 6:0.0736331 
0.50883113938348 4:0.5 5:1.0 6:0.2340184 11:0.09375 16:2.1284098 17:3.8596914 18:3.6915544 19:3.7035306 20:4.9443174 21:4.1905456 
0.013014893825625288 4:0.5 5:1.0 6:0.0254883 11:0.03125 27:5.724476 28:7.023759 29:5.2891579 30:7.023759 
0.015730333811243828 4:0.5 5:1.0 6:0.0526439 11:0.375 31:4.688384 32:6.1764611 33:7.023759 34:4.5388523 35:7.4292241 36:5.3497825 37:7.023759 38:6.7360769 39:7.4292241 40:6.5129333 41:7.023759 42:5.5574219 43:4.8265344 44:7.023759 45:7.023759 
0.0017506058601606724 4:0.5 5:1.0 6:0.0351158 11:0.0625 60:6.5129333 61:7.023759 62:7.4292241 63:5.3497825 64:4.5114533 
0.032990958817053447 4:0.5 5:1.0 6:0.0768099 11:0.0625 16:2.1284098 71:5.8197862 72:4.9443174 73:7.023759 74:6.7360769 
0.007012801334161363 4:0.5 5:1.0 6:0.0211895 11:0.03125 75:7.4292241 76:7.4292241 77:4.7550754 78:7.023759 
0.0189758934320534 4:0.5 5:1.0 6:0.0478894 11:0.0625 96:4.0970196 97:5.4833139 98:5.724476 99:7.4292241 100:6.3306118 
0.021587905257677117 4:0.5 5:1.0 6:0.0233172 50:6.3306118 52:5.4833139 137:6.7360769 
1.0 4:0.5 5:1.0 6:0.1322748 22:1.2502431 77:4.7550754 140:4.8642747 
1.0831670258862303E-4 4:0.5 5:1.0 6:0.0627484 11:0.25 54:3.4310234 154:6.7360769 155:6.7360769 156:7.023759 157:5.5574219 158:7.4292241 159:5.9251467 160:4.5670232 161:5.9251467 162:6.3306118 163:6.1764611 
0.007356151956947338 4:0.5 5:1.0 6:0.0791949 11:0.0625 22:1.2502431 184:6.1764611 185:6.1764611 186:5.414321 187:5.414321 
0.004076467338942997 4:0.5 5:1.0 6:0.0345999 11:0.21875 54:3.4310234 55:6.1764611 188:6.5129333 189:7.4292241 190:7.4292241 191:7.4292241 192:7.4292241 193:7.023759 194:7.023759 195:7.023759 
0.01918737195109364 4:0.5 5:1.0 6:0.0421942 11:0.09375 214:4.688384 215:7.4292241 216:6.5129333 217:7.4292241 218:4.4588096 219:6.1764611 
0.1243800193807323 3:3.9634882 4:0.5 5:1.0 6:0.1545934 11:0.0625 13:5.8197862 22:1.2502431 238:3.6915544 242:5.126639 
0.028487082506798943 4:0.5 5:1.0 6:0.1307694 11:0.125 16:2.1284098 103:3.5272514 243:6.1764611 244:4.2511702 245:7.4292241 246:3.6450344 247:7.4292241 
0.02429721665371845 4:0.5 5:1.0 6:0.059626 22:1.2502431 268:6.3306118 269:7.4292241 
0.020438262013736556 4:0.5 5:1.0 6:0.0770764 11:0.125 16:2.1284098 96:4.0970196 273:6.0429297 274:5.9251467 275:7.4292241 276:7.4292241 277:6.3306118 
0.041490731277836305 4:0.5 5:1.0 6:0.0709497 7:2.6293098 290:5.6374646 291:7.4292241 
0.008032111415298044 4:0.5 6:0.0876624 11:0.03125 22:1.2502431 56:3.5374038 59:1.0 292:7.023759 293:7.4292241 
0.14756119012148017 4:0.5 6:0.1285519 11:0.03125 22:1.2502431 56:3.5374038 59:1.0 123:6.3306118 180:5.0313288 
0.004266553166464901 4:0.5 5:1.0 6:0.057285 11:0.09375 22:1.2502431 326:6.1764611 327:7.023759 328:6.7360769 329:5.6374646 330:6.5129333 
0.20326845271103425 4:0.5 5:1.0 6:0.0456005 11:0.1875 331:6.3306118 332:6.1764611 333:7.023759 334:6.7360769 335:13.4721538 336:8.7694033 337:6.1764611 
0.006485111455276561 4:0.5 5:1.0 6:0.0641371 11:0.09375 22:1.2502431 267:4.986877 368:7.4292241 369:6.0429297 370:6.5129333 371:6.3306118 
0.009775231384149062 4:0.5 5:1.0 6:0.0434614 11:0.34375 149:5.6374646 162:6.3306118 238:3.6915544 372:7.4292241 373:6.7360769 374:7.023759 375:7.4292241 376:7.023759 377:7.4292241 378:6.5129333 379:5.724476 380:6.3306118 381:6.3306118 382:7.023759 
0.016874171379115094 4:0.5 5:1.0 6:0.0622859 16:2.1284098 383:7.4292241 384:7.023759 
0.01407954624461685 4:0.5 5:1.0 6:0.0177872 11:0.0625 394:7.4292241 395:7.023759 396:6.7360769 397:5.9251467 398:6.5129333 
0.003340313112925686 4:0.5 5:1.0 6:0.017839 150:5.2319995 415:7.4292241 416:7.023759 
0.008913489202960994 4:0.5 5:1.0 6:0.0789191 11:0.03125 16:2.1284098 354:5.1779323 423:5.9251467 424:7.4292241 
0.04946522992424656 4:0.5 5:1.0 6:0.109592 11:0.0625 16:2.1284098 425:4.6258637 426:7.023759 427:6.1764611 428:4.1150381 
0.003959594793018214 4:0.5 5:1.0 6:0.0701391 11:0.25 103:3.5272514 132:6.7360769 246:7.2900689 434:7.4292241 435:6.7360769 436:6.7360769 437:7.4292241 438:7.4292241 439:6.5129333 440:7.023759 
0.04641458241535347 4:0.5 5:1.0 6:0.064654 11:0.03125 22:1.2502431 441:5.9251467 442:7.4292241 443:5.724476 
8.564088741157934E-4 4:0.5 5:1.0 6:0.0927877 7:2.6293098 11:0.15625 17:3.8596914 64:4.5114533 456:7.023759 457:4.9034954 458:6.3306118 459:7.023759 460:7.4292241 
0.03697793091601131 4:0.5 5:1.0 6:0.0590989 22:1.2502431 461:7.023759 462:6.7360769 
0.06507310733312166 4:0.5 5:1.0 6:0.0647827 11:0.0625 272:4.5960107 479:4.986877 480:5.9251467 481:5.414321 482:5.724476 
0.01594216094745724 4:0.5 5:1.0 6:0.1051329 11:0.09375 22:1.2502431 283:4.7901667 410:3.873876 483:7.4292241 484:7.4292241 485:4.3847016 
0.0028549976654444293 4:0.5 5:1.0 6:0.0913584 7:2.6293098 11:0.21875 112:4.9034954 410:3.873876 486:6.5129333 487:4.9443174 488:6.3306118 489:7.4292241 490:7.4292241 491:6.0429297 492:5.414321 
0.012336622361952041 4:0.5 5:1.0 6:0.0773656 7:2.6293098 8:4.6566353 11:0.1875 31:4.688384 251:6.3306118 500:6.5129333 501:5.724476 502:5.8197862 503:7.4292241 504:7.4292241 
0.04631757088109491 4:0.5 5:1.0 6:0.0225423 95:5.3497825 505:6.7360769 506:6.5129333 
0.04443974673198538 4:0.5 5:1.0 6:0.0218901 11:0.0625 469:5.9251467 514:6.7360769 515:7.023759 516:6.7360769 517:5.8197862 
0.010053193552886915 4:0.5 5:1.0 6:0.0560035 11:0.0625 533:7.4292241 534:4.4087992 535:4.2722236 536:5.8197862 537:6.5129333 
0.02882568273074409 4:0.5 5:1.0 6:0.0739852 11:0.03125 22:1.2502431 354:5.1779323 541:6.7360769 542:6.1764611 
0.031015117538203806 4:0.5 5:1.0 6:0.0630787 96:4.0970196 551:7.4292241 552:4.3157088 
0.003975930054738536 4:0.5 5:1.0 6:0.1035308 11:0.1875 17:3.8596914 31:4.688384 386:5.126639 410:3.873876 485:4.3847016 558:5.6374646 559:7.4292241 560:5.414321 561:6.7360769 
0.09723279340511425 4:0.5 5:1.0 6:0.0519973 150:5.2319995 346:4.2722236 570:6.5129333 
0.27708455794821174 4:0.5 5:1.0 6:0.1128932 11:0.09375 22:1.2502431 205:4.9034954 302:5.2319995 535:4.2722236 571:5.8197862 572:5.9251467 
0.0010238247518577085 4:0.5 5:1.0 6:0.0135679 11:0.09375 573:6.7360769 574:7.023759 575:6.0429297 576:7.4292241 577:7.4292241 578:7.023759 
0.02170447301633562 4:0.5 5:1.0 6:0.0175731 11:0.0625 358:5.9251467 586:7.4292241 587:6.1764611 588:7.023759 589:7.023759 
0.034705825893813574 4:0.5 5:1.0 6:0.0436805 96:4.0970196 597:5.6374646 598:7.4292241 
0.0355607901672743 1:4.3847016 4:0.5 5:1.0 6:0.0883154 11:0.09375 22:1.2502431 346:4.2722236 443:5.724476 599:7.4292241 600:7.4292241 
0.010624785008274492 4:0.5 5:1.0 6:0.0151453 497:5.3497825 601:7.4292241 602:7.4292241 
0.06341105323294242 4:0.5 5:1.0 6:0.0681281 22:1.2502431 610:6.5129333 611:6.3306118 
0.036184179539766895 3:3.9634882 4:0.5 5:1.0 6:0.0993377 11:0.1875 12:4.0970196 302:5.2319995 349:3.9634882 612:6.5129333 613:6.7360769 614:6.5129333 615:6.7360769 616:4.2305509 
0.7285136311953352 4:0.5 5:1.0 6:0.0361571 634:4.7550754 635:5.724476 636:6.7360769 
1.0 4:0.5 5:1.0 6:0.1220627 22:1.2502431 314:5.1779323 407:4.7901667 
0.01647678094162922 4:0.5 5:1.0 6:0.121806 7:2.6293098 11:0.15625 54:3.4310234 70:1.0 220:3.6915544 314:5.1779323 648:4.9034954 649:6.0429297 650:7.4292241 651:7.4292241 
0.037750093401781454 4:0.5 5:1.0 6:0.0728086 11:0.125 22:1.2502431 652:6.7360769 653:6.7360769 654:6.3306118 655:5.414321 656:5.9251467 657:4.9443174 
0.0017025079330129037 4:0.5 5:1.0 6:0.0461731 11:0.3125 103:3.5272514 349:3.9634882 549:6.0429297 670:7.4292241 671:7.4292241 672:7.023759 673:7.4292241 674:7.4292241 675:7.4292241 676:7.4292241 677:7.4292241 678:6.0429297 679:7.4292241 
0.004261214654852142 4:0.5 5:1.0 6:0.0776414 22:1.2502431 420:4.986877 680:7.4292241 
0.024949530310443373 4:0.5 5:1.0 6:0.0417848 11:0.125 18:3.6915544 681:6.3306118 682:7.4292241 683:7.023759 684:6.3306118 685:6.0429297 686:6.7360769 
0.9940000495405673 4:0.5 5:1.0 6:0.1208904 16:2.1284098 687:4.07932 688:6.5129333 
0.005023996923338279 4:0.5 5:1.0 6:0.0105659 11:0.03125 705:6.3306118 706:7.4292241 707:7.4292241 708:6.7360769 
0.04152698978620877 4:0.5 5:1.0 6:0.0886796 11:0.125 12:4.0970196 22:1.2502431 40:6.5129333 63:5.3497825 138:5.4833139 709:7.023759 710:5.9251467 
8.971071651774734E-5 4:0.5 5:1.0 6:0.0255007 699:4.5670232 714:7.4292241 715:7.023759 
0.010185550448343357 4:0.5 5:1.0 6:0.0843384 11:0.03125 354:5.1779323 355:5.4833139 716:3.5684944 717:5.2891579 
0.2112653169664417 4:0.5 5:1.0 6:0.0873071 11:0.0625 20:4.9443174 21:4.1905456 407:4.7901667 420:4.986877 723:5.8197862 
0.020570724464220952 4:0.5 5:1.0 6:0.065099 11:0.25 180:5.0313288 223:4.4087992 224:3.715652 225:4.7211739 481:5.414321 724:7.4292241 725:7.4292241 726:6.7360769 727:7.4292241 728:7.4292241 729:7.023759 
0.15865627071734834 4:0.5 5:1.0 6:0.0768885 11:0.09375 34:4.5388523 349:3.9634882 410:3.873876 752:7.023759 753:7.023759 754:6.1764611 
0.0020572585060847554 4:0.5 5:1.0 6:0.0157654 11:0.09375 755:7.4292241 756:7.4292241 757:5.9251467 758:6.7360769 759:6.7360769 760:6.7360769 
0.05681052691527948 4:0.5 5:1.0 6:0.0635176 11:0.0625 349:3.9634882 457:4.9034954 769:5.8197862 770:6.7360769 771:5.6374646 
0.004914124834295302 4:0.5 5:1.0 6:0.0768244 11:0.25 235:4.4087992 236:3.3432478 582:6.7360769 716:3.5684944 788:7.023759 789:6.7360769 790:6.0429297 791:6.5129333 792:7.023759 793:7.023759 794:5.8197862 
0.02160840752297218 4:0.5 6:0.0978699 11:0.03125 22:1.2502431 56:3.5374038 59:1.0 809:6.0429297 810:7.4292241 
0.06736566148316799 4:0.5 5:1.0 6:0.1075605 11:0.21875 22:1.2502431 116:6.1764611 223:4.4087992 224:3.715652 227:5.3497825 816:6.7360769 817:5.1779323 818:5.2891579 819:6.5129333 820:6.7360769 
0.10009654368400471 4:0.5 5:1.0 6:0.1255268 9:5.2891579 22:1.2502431 836:4.5388523 
0.0036538006892684115 4:0.5 5:1.0 6:0.020853 11:0.09375 249:5.8197862 322:6.0429297 843:7.4292241 844:7.023759 845:7.4292241 846:6.1764611 
0.0023758091798027903 4:0.5 5:1.0 6:0.0347892 11:0.03125 847:6.1764611 848:4.2937298 849:6.7360769 850:7.023759 
0.03865399746751341 4:0.5 5:1.0 6:0.0475802 257:6.1764611 716:3.5684944 851:7.4292241 
0.020051592671300526 4:0.5 5:1.0 6:0.0601425 11:0.09375 16:2.1284098 203:5.414321 861:7.4292241 862:7.4292241 863:6.1764611 864:6.7360769 
0.003518627279721207 4:0.5 5:1.0 6:0.0173812 11:0.0625 664:5.3497825 865:7.4292241 866:7.4292241 867:6.7360769 868:7.023759 
0.5500044624057957 4:0.5 5:1.0 6:0.1373693 22:1.2502431 90:4.3611711 367:5.126639 
0.08689580206041621 4:0.5 5:1.0 6:0.050012 425:4.6258637 584:5.8197862 873:5.5574219 
0.02347989930785225 4:0.5 5:1.0 6:0.0709497 7:2.6293098 389:5.6374646 874:7.4292241 
0.017623461463107358 4:0.5 5:1.0 6:0.091667 11:0.15625 16:2.1284098 103:3.5272514 261:6.1764611 294:4.7550754 879:5.6374646 880:7.023759 881:7.4292241 882:7.4292241 
0.006648510904133709 4:0.5 5:1.0 6:0.040218 11:0.21875 97:5.4833139 141:4.6258637 439:6.5129333 856:11.2749292 883:7.4292241 884:7.4292241 885:7.4292241 886:7.023759 887:5.9251467 
0.14235444060166344 4:0.5 5:1.0 6:0.1288668 11:0.03125 22:1.2502431 278:3.8596914 294:4.7550754 888:6.1764611 
0.0038479001581858234 4:0.5 5:1.0 6:0.0639098 7:2.6293098 11:0.0625 119:5.414321 195:7.023759 891:6.5129333 892:6.5129333 
0.013254576917679891 4:0.5 5:1.0 6:0.0470447 11:0.09375 16:2.1284098 898:6.7360769 899:6.5129333 900:7.4292241 901:7.4292241 902:7.4292241 
0.9885269276338476 4:0.5 5:1.0 6:0.0293443 80:4.8265344 903:6.5129333 904:6.7360769 
0.11196104833622322 4:0.5 5:1.0 6:0.1218451 7:2.6293098 11:0.09375 355:5.4833139 410:3.873876 485:4.3847016 796:5.4833139 905:6.7360769 
0.013266799217716053 4:0.5 5:1.0 6:0.0630409 11:0.21875 103:3.5272514 246:3.6450344 906:7.023759 907:5.4833139 908:6.3306118 909:6.7360769 910:6.7360769 911:7.4292241 912:7.023759 913:6.7360769 
0.02382812503603065 4:0.5 5:1.0 6:0.0529632 11:0.03125 22:1.2502431 914:7.4292241 915:7.4292241 916:5.8197862 
0.0012600869948195034 4:0.5 5:1.0 6:0.1380699 11:0.28125 17:11.5790741 18:3.6915544 19:3.7035306 20:4.9443174 21:4.1905456 160:4.5670232 922:7.023759 923:5.724476 924:6.5129333 925:7.4292241 
0.023788251801060742 1:4.3847016 4:0.5 5:1.0 6:0.0711533 11:0.15625 27:5.724476 103:3.5272514 479:4.986877 937:7.023759 938:7.4292241 939:7.023759 940:5.6374646 
0.39288765563557315 4:0.5 5:1.0 6:0.1631471 22:1.2502431 66:3.6915544 386:5.126639 
0.016102246580486004 4:0.5 5:1.0 6:0.0181425 11:0.09375 562:5.9251467 947:7.4292241 948:7.023759 949:6.5129333 950:6.3306118 951:7.023759 
1.0 4:0.5 5:1.0 6:0.194729 22:1.2502431 96:4.0970196 121:3.9952369 
0.011619882023208919 4:0.5 5:1.0 6:0.0649279 11:0.21875 16:2.1284098 524:6.5129333 552:4.3157088 819:6.5129333 975:6.7360769 976:5.8197862 977:7.4292241 978:6.7360769 979:6.7360769 980:7.023759 
0.0031187970655300106 4:0.5 5:1.0 6:0.0229341 11:0.03125 240:5.126639 981:6.5129333 982:7.4292241 983:6.5129333 
0.0029003018379525456 4:0.5 5:1.0 6:0.0670199 11:0.0625 22:1.2502431 985:4.688384 1007:7.4292241 1008:5.724476 1009:7.4292241 
0.03930658852048568 4:0.5 6:0.0964848 11:0.03125 22:1.2502431 56:3.5374038 59:1.0 1032:6.5129333 1033:7.023759 
0.01379859586534675 4:0.5 5:1.0 6:0.0223177 11:0.09375 457:4.9034954 1044:7.4292241 1045:6.5129333 1046:6.3306118 1047:7.4292241 1048:7.4292241 
0.07391520283260747 4:0.5 5:1.0 6:0.0465324 11:0.03125 716:3.5684944 1060:7.023759 1061:6.7360769 1062:6.0429297 
0.0012052448281520106 4:0.5 5:1.0 6:0.0466427 11:0.4375 22:1.2502431 558:5.6374646 657:4.9443174 719:7.023759 880:7.023759 1073:14.8584481 1074:5.724476 1075:7.4292241 1076:14.0475179 1077:6.5129333 1078:6.7360769 1079:7.4292241 1080:6.7360769 1081:6.3306118 1082:7.023759 
1.0 4:0.5 5:1.0 6:0.1434161 22:1.2502431 205:4.9034954 592:4.3847016 
0.00432276809281294 4:0.5 5:1.0 6:0.044007 11:0.21875 165:5.2891579 422:5.8197862 569:7.023759 593:5.126639 648:9.8069908 1086:7.023759 1087:7.4292241 1088:7.4292241 1089:7.4292241 
0.30792288971911763 4:0.5 5:1.0 6:0.1844531 11:0.09375 18:3.6915544 19:3.7035306 54:3.4310234 238:3.6915544 552:4.3157088 1101:6.1764611 
0.0013878513197050889 4:0.5 5:1.0 6:0.072628 22:1.2502431 544:5.2891579 1112:7.4292241 
0.004713842053151995 4:0.5 5:1.0 6:0.0511224 11:0.09375 16:2.1284098 1006:5.3497825 1113:7.4292241 1114:7.4292241 1115:7.4292241 1116:7.4292241 
0.006138530748050173 4:0.5 5:1.0 6:0.0532984 11:0.09375 16:2.1284098 978:6.7360769 1046:6.3306118 1117:7.4292241 1118:6.1764611 1119:7.4292241 
0.009055584285068974 4:0.5 5:1.0 6:0.1135544 11:0.125 17:3.8596914 18:3.6915544 19:3.7035306 160:4.5670232 250:5.9251467 683:7.023759 1120:6.3306118 
0.05286180850356171 4:0.5 6:0.1440865 11:0.0625 12:4.0970196 22:1.2502431 56:3.5374038 59:1.0 218:4.4588096 1121:7.4292241 
0.30015317371617906 4:0.5 5:1.0 6:0.118142 11:0.03125 12:4.0970196 236:3.3432478 399:4.8642747 1122:5.5574219 
0.004422149034119396 4:0.5 5:1.0 6:0.0628453 11:0.03125 22:1.2502431 1155:5.414321 1156:7.4292241 1157:6.5129333 
0.013245023596892962 4:0.5 5:1.0 6:0.0498044 11:0.09375 236:3.3432478 261:6.1764611 944:5.9251467 1173:7.023759 1174:6.3306118 1175:7.023759 
0.02442148685186065 4:0.5 5:1.0 6:0.0359346 713:4.5670232 1193:6.0429297 1194:6.7360769 
0.06588755775302098 3:3.9634882 4:0.5 5:1.0 6:0.0844023 11:0.125 91:5.1779323 468:4.2305509 536:5.8197862 1204:5.414321 1205:6.3306118 1206:5.8197862 
0.012615191531791588 4:0.5 5:1.0 6:0.0742094 11:0.25 16:2.1284098 171:5.126639 534:4.4087992 828:5.3497825 1199:5.6374646 1229:7.4292241 1230:6.3306118 1231:7.4292241 1232:7.023759 1233:7.4292241 1234:6.5129333 
0.007156070642566003 4:0.5 5:1.0 6:0.018661 11:0.21875 42:5.5574219 254:6.7360769 669:6.3306118 1002:6.7360769 1235:7.023759 1236:14.8584481 1237:7.4292241 1238:7.023759 1239:7.4292241 
0.003529848401506567 4:0.5 5:1.0 6:0.0680847 11:0.0625 16:2.1284098 29:5.2891579 1241:5.6374646 1242:7.4292241 1243:7.4292241 
0.9878347607855054 4:0.5 5:1.0 6:0.0838364 22:1.2502431 205:4.9034954 1254:7.023759 
0.24273601469225456 4:0.5 5:1.0 6:0.1221607 11:0.0625 16:2.1284098 411:4.5388523 477:4.1905456 1183:5.9251467 1274:6.0429297 
0.030616669919241838 4:0.5 5:1.0 6:0.0099709 11:0.03125 1261:6.5129333 1282:7.023759 1283:7.023759 1284:7.4292241 
0.05088492499522337 4:0.5 5:1.0 6:0.0791938 11:0.0625 22:1.2502431 80:4.8265344 703:6.7360769 1297:5.8197862 1298:6.1764611 
0.012286905909569159 4:0.5 5:1.0 6:0.0652641 22:1.2502431 316:5.8197862 1301:7.4292241 
0.015347321397062338 4:0.5 5:1.0 6:0.0564568 11:0.1875 54:3.4310234 687:4.07932 1024:6.3306118 1061:6.7360769 1125:6.0429297 1302:7.023759 1303:7.023759 1304:7.4292241 1305:7.4292241 
0.1214139122786801 4:0.5 5:1.0 6:0.0256617 143:5.5574219 1312:5.9251467 1313:6.7360769 
0.038147982511887134 4:0.5 5:1.0 6:0.0724976 11:0.125 36:5.3497825 214:4.688384 365:5.0778488 535:4.2722236 1314:5.8197862 1315:6.1764611 1316:6.7360769 
0.9856821606779815 1:4.3847016 3:3.9634882 4:0.5 5:1.0 6:0.0860739 1322:5.724476 
0.033491779095414516 4:0.5 5:1.0 6:0.0778561 22:1.2502431 1333:5.2319995 1334:7.023759 
0.0038217013936034643 4:0.5 5:1.0 6:0.0561872 7:2.6293098 11:0.0625 420:4.986877 1335:7.4292241 1336:7.4292241 1337:7.4292241 
0.01681022650625495 4:0.5 5:1.0 6:0.0344488 11:0.09375 349:3.9634882 1351:7.4292241 1352:6.5129333 1353:7.4292241 1354:7.023759 1355:6.0429297 
0.017008676160906462 4:0.5 5:1.0 6:0.0638661 11:0.03125 22:1.2502431 70:1.0 120:5.2319995 416:7.023759 1365:7.023759 
0.04787804142269189 4:0.5 5:1.0 6:0.1219531 11:0.0625 22:1.2502431 47:4.3611711 485:4.3847016 1018:5.9251467 1371:5.4833139 
0.8162783163753052 4:0.5 6:0.2069522 11:0.03125 22:1.2502431 56:3.5374038 59:1.0 336:4.3847016 535:4.2722236 
0.027204924671656094 4:0.5 5:1.0 6:0.0220834 151:6.7360769 386:5.126639 1388:7.023759 
0.029902835798757552 4:0.5 5:1.0 6:0.0201142 11:0.0625 970:5.8197862 1390:7.023759 1391:7.023759 1392:7.023759 1393:6.1764611 
0.04318492518234201 4:0.5 5:1.0 6:0.075822 11:0.03125 122:4.986877 468:4.2305509 713:4.5670232 1126:6.3306118 
0.009872017647122196 4:0.5 5:1.0 6:0.1701881 22:1.2502431 534:4.4087992 616:4.2305509 
0.006319530628123647 4:0.5 5:1.0 6:0.0979242 11:0.3125 22:1.2502431 54:3.4310234 387:4.8642747 616:8.4611019 711:6.5129333 1426:6.1764611 1427:7.023759 1428:6.3306118 1429:6.5129333 1430:7.4292241 1431:7.023759 1432:6.7360769 
0.004505774227501945 4:0.5 5:1.0 6:0.0695125 11:0.40625 22:1.2502431 113:6.1764611 218:4.4588096 267:4.986877 531:6.7360769 1343:5.3497825 1433:7.023759 1434:10.8286421 1435:6.5129333 1436:6.3306118 1437:7.4292241 1438:7.4292241 1439:6.5129333 1440:7.4292241 1441:7.4292241 
0.005314672906261523 4:0.5 5:1.0 6:0.0517142 11:0.15625 246:3.6450344 267:4.986877 510:7.023759 1315:6.1764611 1400:5.414321 1442:7.023759 1443:7.4292241 1444:7.023759 
0.006967632747163936 4:0.5 5:1.0 6:0.007963 11:0.0625 899:6.5129333 1448:7.4292241 1449:7.4292241 1450:7.4292241 1451:7.4292241 
0.006146165685489928 4:0.5 5:1.0 6:0.0114459 11:0.03125 1405:6.5129333 1464:7.4292241 1465:6.3306118 1466:7.4292241 
0.17127171397837304 4:0.5 5:1.0 6:0.0848437 11:0.03125 244:4.2511702 349:3.9634882 1102:6.0429297 1467:5.414321 
0.010972791758180401 4:0.5 5:1.0 6:0.0373082 11:0.09375 121:3.9952369 135:5.6374646 1468:7.4292241 1469:7.023759 1470:6.5129333 1471:7.023759 
0.021749064583468897 4:0.5 5:1.0 6:0.1142935 22:1.2502431 66:3.6915544 1474:7.023759 
0.028823671947255554 4:0.5 5:1.0 6:0.0385406 11:0.125 135:5.6374646 399:4.8642747 487:4.9443174 1317:6.1764611 1475:7.4292241 1476:7.4292241 1477:7.023759 
0.5525355399621629 4:0.5 5:1.0 6:0.0893335 11:0.03125 238:3.6915544 522:5.1779323 552:4.3157088 1478:6.1764611 
0.43240690392273207 4:0.5 5:1.0 6:0.0885852 11:0.03125 22:1.2502431 157:5.5574219 544:5.2891579 893:5.9251467 
0.033428143064732956 4:0.5 5:1.0 6:0.0127858 11:0.0625 398:6.5129333 1512:6.7360769 1513:6.7360769 1514:7.023759 1515:7.4292241 
0.001177402507102023 4:0.5 5:1.0 6:0.021146 11:0.0625 176:6.1764611 1268:6.7360769 1439:6.5129333 1516:7.4292241 1517:5.8197862 
0.03010793009784073 4:0.5 5:1.0 6:0.096617 11:0.125 16:2.1284098 72:4.9443174 409:5.8197862 477:4.1905456 1518:6.7360769 1519:7.023759 1520:5.4833139 
0.0017450432657660278 4:0.5 5:1.0 6:0.0973166 11:0.15625 236:3.3432478 336:4.3847016 535:4.2722236 536:5.8197862 1521:5.8197862 1522:7.4292241 1523:4.5670232 1524:7.023759 
0.03876724338922376 4:0.5 5:1.0 6:0.0211767 11:0.09375 79:5.9251467 250:5.9251467 992:7.023759 1527:6.7360769 1528:6.7360769 1529:7.023759 
0.022156811215696404 4:0.5 5:1.0 6:0.0902631 336:4.3847016 535:4.2722236 1538:5.2891579 
0.04184006478067997 4:0.5 5:1.0 6:0.0743356 11:0.28125 17:3.8596914 34:4.5388523 103:3.5272514 402:5.4833139 689:6.1764611 1402:5.724476 1539:6.3306118 1540:7.4292241 1541:7.4292241 1542:7.023759 1543:6.5129333 1544:7.023759 
0.06428434492407596 4:0.5 5:1.0 6:0.094062 11:0.0625 121:3.9952369 278:3.8596914 558:5.6374646 1523:4.5670232 1545:6.7360769 
0.01946669521598298 4:0.5 5:1.0 6:0.0808183 11:0.1875 90:4.3611711 214:4.688384 223:4.4087992 224:3.715652 690:6.7360769 708:6.7360769 1160:5.5574219 1551:7.4292241 1552:7.023759 
0.02179711616611743 4:0.5 5:1.0 6:0.1348366 11:0.0625 16:2.1284098 224:3.715652 428:4.1150381 1421:5.8197862 1563:6.7360769 
0.062116722742772884 4:0.5 5:1.0 6:0.0822491 11:0.03125 22:1.2502431 858:4.2722236 1049:6.5129333 1363:7.023759 
0.011002137080611608 4:0.5 5:1.0 6:0.057681 11:0.0625 22:1.2502431 212:6.3306118 242:5.126639 1577:7.4292241 1578:7.4292241 
0.01834224992200092 4:0.5 5:1.0 6:0.1113916 11:0.0625 16:2.1284098 24:5.9251467 238:3.6915544 593:5.126639 1579:7.023759 
0.03841115776958417 4:0.5 5:1.0 6:0.055955 22:1.2502431 1580:7.4292241 1581:6.7360769 
0.00958682913114243 4:0.5 5:1.0 6:0.0363468 11:0.1875 47:4.3611711 548:4.7550754 781:6.3306118 1582:7.4292241 1583:7.023759 1584:7.4292241 1585:7.4292241 1586:7.023759 1587:6.5129333 
0.026725661787748226 4:0.5 5:1.0 6:0.0863014 11:0.0625 22:1.2502431 64:4.5114533 858:4.2722236 1588:7.4292241 1589:7.4292241 
0.011834429540813709 4:0.5 5:1.0 6:0.029886 11:0.03125 96:4.0970196 1590:7.4292241 1591:7.4292241 1592:6.7360769 
4.1194752711089224E-5 4:0.5 5:1.0 6:0.0138859 11:0.03125 1027:6.7360769 1252:5.9251467 1600:7.023759 1601:7.4292241 
0.20442421446190837 4:0.5 5:1.0 6:0.1186775 11:0.0625 18:3.6915544 19:3.7035306 411:4.5388523 522:5.1779323 1274:6.0429297 
0.031717982112509764 4:0.5 5:1.0 6:0.0636623 11:0.0625 117:6.3306118 481:5.414321 716:3.5684944 996:5.126639 1609:7.4292241 
0.2616570374161007 4:0.5 5:1.0 6:0.1941048 11:0.125 16:2.1284098 17:3.8596914 18:3.6915544 19:3.7035306 21:4.1905456 260:6.3306118 644:5.2891579 
0.01322821651106313 4:0.5 5:1.0 6:0.0156007 11:0.03125 1348:5.8197862 1640:7.4292241 1641:6.7360769 1642:6.7360769 
0.01758006933487022 4:0.5 5:1.0 6:0.0408347 11:0.0625 349:3.9634882 474:5.126639 1648:7.4292241 1649:7.4292241 1650:6.7360769 
0.021784643228045117 4:0.5 5:1.0 6:0.0745808 7:2.6293098 11:0.15625 85:5.414321 142:5.8197862 848:4.2937298 1651:6.3306118 1652:7.4292241 1653:6.5129333 1654:7.023759 
0.040204035256943896 4:0.5 5:1.0 6:0.0927194 7:2.6293098 11:0.09375 66:3.6915544 179:5.6374646 1655:5.414321 1656:6.7360769 1657:7.4292241 
0.011510060385420426 4:0.5 5:1.0 6:0.0843939 7:2.6293098 80:4.8265344 1662:7.4292241 
0.03171934009176516 3:3.9634882 4:0.5 5:1.0 6:0.0838823 11:0.15625 12:4.0970196 137:6.7360769 349:3.9634882 365:5.0778488 613:6.7360769 1663:6.7360769 1664:6.5129333 
0.10943411810122854 4:0.5 5:1.0 6:0.1231573 22:1.2502431 54:3.4310234 1690:7.023759 
0.0041312118585914975 4:0.5 5:1.0 6:0.0076912 11:0.03125 1671:6.5129333 1705:7.4292241 1706:7.4292241 1707:7.4292241 
0.024585247756550695 4:0.5 5:1.0 6:0.0209458 11:0.03125 1063:5.9251467 1064:6.1764611 1714:7.023759 1715:6.5129333 
0.09607139589436553 4:0.5 6:0.0718613 56:3.5374038 59:1.0 418:5.9251467 1332:5.414321 
0.007977289373202247 4:0.5 5:1.0 6:0.0568227 11:0.0625 16:2.1284098 1720:7.4292241 1721:6.7360769 1722:5.724476 1723:7.4292241 
0.012385552883125456 4:0.5 5:1.0 6:0.1207574 11:0.03125 22:1.2502431 66:3.6915544 67:5.6374646 1533:5.9251467 
0.002076974250363062 4:0.5 5:1.0 6:0.0100622 11:0.0625 909:6.7360769 1728:7.4292241 1729:7.4292241 1730:6.7360769 1731:7.023759 
0.002664632477941576 4:0.5 5:1.0 6:0.0076912 11:0.03125 1747:7.4292241 1748:7.4292241 1749:6.5129333 1750:7.4292241 
0.006453049857784645 4:0.5 5:1.0 6:0.0285141 11:0.125 98:5.724476 346:4.2722236 1753:7.4292241 1754:7.023759 1755:7.023759 1756:7.4292241 1757:7.4292241 
0.03271746252769224 4:0.5 5:1.0 6:0.1058501 11:0.03125 283:4.7901667 284:5.0313288 349:3.9634882 699:4.5670232 
0.002119078233740755 4:0.5 5:1.0 6:0.0107605 11:0.03125 412:6.3306118 1758:7.4292241 1759:7.023759 1760:7.023759 
0.4812438074189932 4:0.5 5:1.0 6:0.1044056 22:1.2502431 699:4.5670232 863:6.1764611 
0.35969780171238 4:0.5 6:0.1431927 11:0.03125 22:1.2502431 23:4.7211739 56:3.5374038 59:1.0 79:5.9251467 
0.004006958926135227 4:0.5 5:1.0 6:0.0316792 11:0.15625 235:4.4087992 1352:6.5129333 1768:5.4833139 1769:7.023759 1770:7.023759 1771:7.4292241 1772:6.7360769 1773:7.4292241 
1.7937948622324598E-4 4:0.5 5:1.0 6:0.0901275 11:0.03125 16:2.1284098 687:4.07932 688:6.5129333 1789:7.4292241 
0.07346061125057993 4:0.5 5:1.0 6:0.0709839 7:2.6293098 11:0.03125 1366:6.5129333 1655:5.414321 1656:6.7360769 
0.048885633588339666 4:0.5 5:1.0 6:0.1036274 11:0.0625 90:4.3611711 177:4.1520793 349:3.9634882 985:4.688384 1797:7.023759 
0.024245360305818118 4:0.5 5:1.0 6:0.0664516 11:0.0625 16:2.1284098 996:5.126639 1133:6.0429297 1802:7.4292241 1803:7.4292241 
1.0 4:0.5 5:1.0 6:0.0908941 22:1.2502431 270:5.6374646 280:5.6374646 
0.019463358400247717 4:0.5 5:1.0 6:0.1077176 22:1.2502431 66:3.6915544 1824:7.4292241 
0.0014957172317223097 4:0.5 5:1.0 6:0.0816471 7:2.6293098 11:0.09375 477:4.1905456 953:6.7360769 1253:4.986877 1479:7.023759 1825:7.023759 
0.0038189337333391685 4:0.5 5:1.0 6:0.0597473 11:0.03125 16:2.1284098 258:7.023759 350:6.5129333 1828:7.023759 
0.019601150160182296 4:0.5 5:1.0 6:0.0226099 11:0.0625 1678:5.4833139 1829:7.023759 1830:6.5129333 1831:5.9251467 1832:7.4292241 
0.01516763481228942 4:0.5 5:1.0 6:0.0668684 7:2.6293098 11:0.03125 1018:5.9251467 1841:7.4292241 1842:5.8197862 
0.009578402782551723 4:0.5 5:1.0 6:0.0167013 11:0.125 458:6.3306118 562:5.9251467 1849:6.7360769 1850:6.7360769 1851:7.4292241 1852:7.4292241 1853:7.4292241 
0.019372435479229542 3:3.9634882 4:0.5 5:1.0 6:0.0380291 11:0.0625 443:5.724476 1859:7.023759 1860:7.023759 1861:7.4292241 
0.0037260123894648283 4:0.5 5:1.0 6:0.0088136 11:0.03125 524:6.5129333 1862:7.4292241 1863:7.023759 1864:7.4292241 
0.027649359944838883 4:0.5 5:1.0 6:0.0710556 11:0.21875 138:5.4833139 173:5.724476 196:5.4833139 256:5.724476 716:3.5684944 1204:5.414321 1595:5.6374646 1876:6.1764611 1877:6.1764611 1878:7.4292241 
0.035441351344123774 4:0.5 5:1.0 6:0.0306543 1147:7.023759 1538:5.2891579 1885:5.414321 
0.014957873025730416 4:0.5 5:1.0 6:0.08471 11:0.0625 22:1.2502431 157:5.5574219 225:4.7211739 491:6.0429297 1897:6.5129333 
0.013534707353176932 4:0.5 5:1.0 6:0.0130014 11:0.03125 257:6.1764611 1905:7.4292241 1906:7.4292241 1907:6.3306118 
0.011938664384250711 4:0.5 5:1.0 6:0.0399176 11:0.03125 283:4.7901667 836:4.5388523 1908:7.4292241 1909:7.4292241 
0.12293715763194112 4:0.5 5:1.0 6:0.1009356 11:0.15625 22:1.2502431 233:4.7901667 353:4.5114533 387:4.8642747 420:4.986877 1067:6.5129333 1415:6.3306118 1916:6.7360769 
0.003032707153636419 2:13.4721538 4:0.5 5:1.0 6:0.0345902 11:0.46875 70:1.0 120:5.2319995 196:5.4833139 405:6.3306118 968:5.5574219 1779:6.1764611 1847:6.7360769 1863:7.023759 1932:7.023759 1933:7.4292241 1934:14.8584481 1935:14.0475179 1936:6.1764611 1937:6.5129333 1938:7.023759 
0.16632530329797385 4:0.5 5:1.0 6:0.1072926 11:0.15625 55:6.1764611 121:3.9952369 236:6.6864955 464:5.9251467 547:6.0429297 623:6.0429297 696:5.724476 
0.10898727730841531 4:0.5 5:1.0 6:0.0731477 11:0.03125 16:2.1284098 1678:5.4833139 1941:6.7360769 1942:6.7360769 
1.6180955811449888E-4 4:0.5 5:1.0 6:0.0403557 11:0.125 135:5.6374646 716:3.5684944 1029:7.023759 1586:7.023759 1943:7.4292241 1944:6.1764611 1945:7.4292241 
1.7936926035355325E-4 4:0.5 5:1.0 6:0.0638082 11:0.40625 31:4.688384 149:5.6374646 177:4.1520793 348:6.7360769 381:12.6612235 481:16.2429631 713:4.5670232 1947:6.0429297 1948:7.4292241 1949:6.7360769 1950:7.023759 1951:5.8197862 1952:7.4292241 
0.6967030119324102 4:0.5 5:1.0 6:0.1435365 11:0.03125 16:2.1284098 233:4.7901667 687:4.07932 1372:5.5574219 
0.9684477503187491 4:0.5 5:1.0 6:0.054569 11:0.03125 634:4.7550754 985:4.688384 1708:5.414321 1959:7.023759 
0.09351590044148879 4:0.5 5:1.0 6:0.0347891 762:6.1764611 967:4.9443174 1960:6.0429297 
0.007728841820333328 4:0.5 5:1.0 6:0.0248882 1074:5.724476 1399:5.3497825 1962:7.4292241 
0.023721132399710316 4:0.5 5:1.0 6:0.051375 11:0.1875 138:5.4833139 246:3.6450344 321:6.7360769 878:5.9251467 1907:6.3306118 1963:6.1764611 1964:6.1764611 1965:6.7360769 1966:7.4292241 
0.2988259479296832 4:0.5 5:1.0 6:0.0828894 302:5.2319995 317:4.1711275 813:4.6566353 
0.00835651829987811 4:0.5 5:1.0 6:0.0489922 11:0.1875 555:6.7360769 712:5.5574219 716:3.5684944 797:5.0313288 1190:6.5129333 1974:6.7360769 1975:7.023759 1976:7.023759 1977:7.4292241 
0.042802418680074526 4:0.5 5:1.0 6:0.0800293 11:0.0625 22:1.2502431 616:4.2305509 1885:5.414321 1986:7.4292241 1987:7.023759 
0.11051382644917235 4:0.5 5:1.0 6:0.0323244 148:6.5129333 149:5.6374646 150:5.2319995 
0.0037265569821393714 4:0.5 5:1.0 6:0.038311 11:0.15625 67:5.6374646 230:5.0778488 353:4.5114533 419:6.7360769 1415:6.3306118 1997:7.4292241 1998:7.4292241 1999:7.4292241 
0.009959284177944096 4:0.5 5:1.0 6:0.057737 11:0.1875 16:2.1284098 231:6.0429297 1179:5.6374646 1930:6.5129333 2003:6.5129333 2004:7.4292241 2005:7.4292241 2006:7.023759 2007:5.8197862 
0.15937674646747094 4:0.5 5:1.0 6:0.0448927 114:5.6374646 346:4.2722236 2008:6.7360769 
0.01859904502656486 4:0.5 5:1.0 6:0.105454 22:1.2502431 121:3.9952369 2010:7.023759 
0.36636526870872227 4:0.5 5:1.0 6:0.1381514 11:0.0625 223:4.4087992 224:3.715652 236:3.3432478 557:4.8265344 823:5.8197862 
0.019300147697237393 4:0.5 5:1.0 6:0.0277611 11:0.09375 362:5.5574219 695:5.6374646 2029:6.7360769 2030:7.4292241 2031:6.1764611 2032:6.5129333 
0.49535502948331234 4:0.5 5:1.0 6:0.1235999 7:2.6293098 11:0.03125 80:4.8265344 606:5.5574219 699:4.5670232 
0.019225578656376762 4:0.5 5:1.0 6:0.0655438 11:0.0625 241:6.7360769 278:3.8596914 848:4.2937298 1338:6.1764611 1944:6.1764611 
0.006778106618629654 4:0.5 5:1.0 6:0.0463181 7:2.6293098 11:0.03125 2049:7.4292241 2050:7.4292241 2051:7.4292241 
0.15669086353287656 4:0.5 5:1.0 6:0.0608005 468:4.2305509 1424:6.1764611 1911:4.986877 
0.026728245793313805 4:0.5 5:1.0 6:0.1105779 11:0.0625 22:1.2502431 121:3.9952369 267:4.986877 1157:6.5129333 1888:5.5574219 
0.007233919468002383 4:0.5 6:0.1132781 11:0.0625 22:1.2502431 56:3.5374038 59:1.0 552:4.3157088 1761:6.5129333 2055:7.023759 
0.004152301830620293 4:0.5 6:0.0718552 11:0.15625 22:1.2502431 66:3.6915544 326:6.1764611 697:6.7360769 2036:5.3497825 2038:1.0 2064:7.4292241 2065:7.4292241 2066:7.023759 
0.005916823834825863 3:3.9634882 4:0.5 5:1.0 6:0.1104936 11:0.125 22:1.2502431 93:4.4087992 392:6.5129333 1371:5.4833139 2057:4.7211739 2067:7.4292241 
0.00823623144693004 4:0.5 5:1.0 6:0.1247244 22:1.2502431 63:5.3497825 64:4.5114533 
0.02113286386926701 4:0.5 5:1.0 6:0.0209572 647:5.2891579 2070:7.4292241 2071:6.3306118 
1.0 4:0.5 5:1.0 6:0.1557806 22:1.2502431 432:4.5670232 534:4.4087992 
0.001804419291833891 4:0.5 5:1.0 6:0.0683511 11:0.15625 16:2.1284098 235:4.4087992 1063:5.9251467 1064:6.1764611 1830:6.5129333 2093:7.4292241 2094:6.7360769 2095:7.4292241 
0.010608932728160398 4:0.5 5:1.0 6:0.0799856 11:0.09375 22:1.2502431 315:4.9443174 655:5.414321 1333:5.2319995 2098:6.7360769 2099:7.023759 
0.07962455192656186 4:0.5 5:1.0 6:0.1070479 11:0.09375 16:2.1284098 428:4.1150381 467:10.3558645 522:5.1779323 1062:6.0429297 
0.025607804034284306 4:0.5 5:1.0 6:0.0707093 11:0.0625 16:2.1284098 1165:5.724476 1467:5.414321 1712:7.023759 1713:7.023759 
0.025356676397106398 4:0.5 5:1.0 6:0.0884882 11:0.0625 22:1.2502431 121:3.9952369 1023:5.724476 1166:5.9251467 2101:7.4292241 
0.15771798972109233 4:0.5 5:1.0 6:0.1906691 11:0.3125 22:2.5004863 36:5.3497825 223:8.8175984 224:7.431304 225:4.7211739 235:4.4087992 236:3.3432478 390:6.7360769 1280:6.5129333 2107:6.0429297 
0.016694788497210903 4:0.5 5:1.0 6:0.066707 11:0.3125 22:1.2502431 66:3.6915544 97:5.4833139 769:5.8197862 794:5.8197862 1539:6.3306118 2115:6.7360769 2116:7.4292241 2117:7.4292241 2118:6.5129333 2119:6.7360769 2120:7.4292241 2121:7.4292241 
0.40350561798371 4:0.5 5:1.0 6:0.2025108 11:0.0625 18:3.6915544 19:3.7035306 22:1.2502431 77:4.7550754 160:4.5670232 
0.8644850094809249 4:0.5 5:1.0 6:0.0751887 246:3.6450344 1253:4.986877 1679:6.1764611 
0.058865727810324474 4:0.5 5:1.0 6:0.0731014 11:0.15625 246:7.2900689 535:4.2722236 1110:6.3306118 2072:5.9251467 2140:6.1764611 2141:14.0475179 
0.01954286078381541 4:0.5 5:1.0 6:0.0511461 11:0.03125 96:4.0970196 1775:4.986877 2103:6.1764611 2145:7.4292241 
0.06362859177938127 4:0.5 5:1.0 6:0.0566031 11:0.125 103:3.5272514 443:5.724476 474:5.126639 1248:6.3306118 2147:7.023759 2148:6.3306118 2149:7.023759 
0.008063694160741113 4:0.5 5:1.0 6:0.0823317 11:0.21875 34:4.5388523 103:3.5272514 236:3.3432478 643:5.2319995 1521:5.8197862 2154:6.3306118 2155:7.4292241 2156:7.4292241 2157:7.023759 2158:6.7360769 
0.016160154674758297 4:0.5 5:1.0 6:0.0405721 11:0.0625 349:3.9634882 1097:7.023759 1399:5.3497825 2178:7.4292241 2179:6.7360769 
0.008245334159637425 4:0.5 5:1.0 6:0.0176472 11:0.03125 472:6.5129333 1708:5.414321 2187:7.4292241 2188:7.4292241 
0.030894364723810554 4:0.5 5:1.0 6:0.0551835 96:4.0970196 646:6.5129333 647:5.2891579 
3.868955164093143E-4 4:0.5 5:1.0 6:0.0186968 879:5.6374646 1465:6.3306118 2194:7.4292241 
0.6432100611516472 3:3.9634882 4:0.5 5:1.0 6:0.2042721 16:2.1284098 687:4.07932 
0.005489844914978665 4:0.5 5:1.0 6:0.0618302 7:2.6293098 11:0.09375 562:5.9251467 593:5.126639 2208:6.3306118 2209:7.4292241 2210:7.4292241 
0.019879247079645654 4:0.5 5:1.0 6:0.0590715 11:0.09375 141:4.6258637 218:4.4588096 235:4.4087992 516:6.7360769 2214:7.4292241 2215:6.7360769 
0.018486296192641975 4:0.5 5:1.0 6:0.0638204 7:2.6293098 11:0.28125 32:6.1764611 63:5.3497825 98:5.724476 202:7.023759 635:5.724476 1768:5.4833139 1951:5.8197862 2125:7.023759 2216:6.7360769 2217:7.4292241 2218:7.4292241 
1.0 4:0.5 5:1.0 6:0.1426125 22:1.2502431 242:5.126639 244:4.2511702 
0.03637622323180112 4:0.5 5:1.0 6:0.0622753 7:2.6293098 11:0.0625 1858:5.724476 2228:5.9251467 2229:7.023759 2230:7.023759 
0.0857331654686231 4:0.5 5:1.0 6:0.0530929 11:0.125 121:3.9952369 175:5.2891579 1023:5.724476 1024:6.3306118 1764:6.1764611 2236:6.7360769 2237:6.5129333 
0.00807964365353662 4:0.5 6:0.0917226 11:0.03125 22:1.2502431 56:3.5374038 59:1.0 1011:6.7360769 2240:7.4292241 
0.02272549181666168 4:0.5 5:1.0 6:0.0381067 11:0.0625 967:4.9443174 1517:5.8197862 1538:5.2891579 2248:7.023759 2249:6.7360769 
0.24113570076024451 4:0.5 5:1.0 6:0.1191962 11:0.03125 22:1.2502431 49:5.2319995 557:4.8265344 744:4.986877 
2.752488298762732E-4 4:0.5 5:1.0 6:0.0153934 11:0.03125 53:5.6374646 1643:7.023759 2250:7.4292241 2251:7.023759 
0.007855573169438143 4:0.5 5:1.0 6:0.1185864 11:0.09375 16:2.1284098 18:3.6915544 19:3.7035306 886:7.023759 2263:6.1764611 2264:6.7360769 
0.16576629028848436 4:0.5 5:1.0 6:0.0908517 11:0.0625 22:1.2502431 535:4.2722236 1269:5.9251467 2266:6.0429297 2267:6.3306118 
0.02521568462432729 4:0.5 5:1.0 6:0.1246786 7:2.6293098 11:0.0625 336:8.7694033 477:4.1905456 1783:6.3306118 
0.035013260306295965 4:0.5 5:1.0 6:0.0644565 11:0.0625 22:1.2502431 407:4.7901667 2273:6.5129333 2274:7.4292241 2275:6.7360769 
0.13510785384587284 4:0.5 5:1.0 6:0.0814775 11:0.03125 246:3.6450344 385:5.4833139 482:5.724476 1253:4.986877 
0.04846547201374811 4:0.5 6:0.1578168 22:1.2502431 56:3.5374038 59:1.0 119:5.414321 
0.028625069761340483 4:0.5 5:1.0 6:0.052476 11:0.09375 16:2.1284098 663:6.7360769 2285:6.3306118 2286:7.4292241 2287:6.3306118 2288:7.4292241 
0.3025585650242457 4:0.5 5:1.0 6:0.0702816 11:0.03125 96:4.0970196 186:5.414321 552:4.3157088 2292:7.023759 
0.008887744700549495 4:0.5 5:1.0 6:0.1073789 11:0.0625 16:2.1284098 425:4.6258637 428:4.1150381 575:6.0429297 2294:7.4292241 
0.0023338460377446894 4:0.5 5:1.0 6:0.0515869 11:0.46875 69:6.1764611 371:6.3306118 479:4.986877 699:4.5670232 836:4.5388523 1454:5.724476 1628:4.986877 1785:6.5129333 1880:7.023759 2296:7.4292241 2297:7.4292241 2298:7.4292241 2299:7.4292241 2300:7.4292241 2301:6.5129333 2302:6.3306118 2303:7.4292241 2304:7.4292241 
0.00285213438038134 4:0.5 5:1.0 6:0.1032083 7:2.6293098 11:0.0625 244:4.2511702 336:4.3847016 2306:6.7360769 2307:7.023759 
0.19211416639617793 4:0.5 5:1.0 6:0.0574033 11:0.0625 52:5.4833139 233:4.7901667 441:5.9251467 634:4.7550754 837:6.5129333 
0.011872070987721257 4:0.5 5:1.0 6:0.0463746 11:0.0625 16:2.1284098 2310:7.4292241 2311:7.4292241 2312:7.4292241 2313:7.023759 
0.05437136217986202 4:0.5 5:1.0 6:0.0692432 236:3.3432478 249:5.8197862 846:6.1764611 
0.10631115996102307 4:0.5 5:1.0 6:0.0964469 11:0.15625 16:2.1284098 410:3.873876 492:5.414321 1145:5.724476 1256:5.4833139 1624:6.0429297 2315:7.023759 2316:6.5129333 
0.1591954698192077 4:0.5 5:1.0 6:0.1221694 11:0.03125 22:1.2502431 218:4.4588096 233:4.7901667 1497:5.724476 
0.01329131757535489 4:0.5 5:1.0 6:0.0640932 244:4.2511702 535:4.2722236 2321:7.4292241 
1.0 4:0.5 5:1.0 6:0.0308611 548:4.7550754 1146:6.3306118 2235:6.7360769 
0.014569710156508065 4:0.5 5:1.0 6:0.0252548 11:0.03125 1234:6.5129333 1501:5.6374646 1740:6.0429297 2242:6.5129333 
0.18297553360580396 4:0.5 5:1.0 6:0.0386782 96:4.0970196 1347:6.7360769 2354:6.7360769 
0.03824993177776347 4:0.5 5:1.0 6:0.0424794 11:0.0625 72:4.9443174 858:4.2722236 990:6.0429297 2357:7.4292241 2358:7.4292241 
0.027692483681058092 4:0.5 5:1.0 6:0.0928363 16:2.1284098 467:5.1779323 831:6.7360769 
0.03016724562658011 4:0.5 5:1.0 6:0.0187093 11:0.0625 757:5.9251467 1299:6.7360769 1300:6.7360769 2263:6.1764611 2362:7.4292241 
0.0027938077041899318 4:0.5 5:1.0 6:0.0883128 11:0.03125 16:2.1284098 485:4.3847016 2365:7.023759 2366:6.5129333 
0.00586322340096814 4:0.5 5:1.0 6:0.0161848 11:0.03125 940:5.6374646 2368:7.4292241 2369:7.4292241 2370:6.3306118 
0.019645128272939003 4:0.5 5:1.0 6:0.0626454 22:1.2502431 809:6.0429297 2378:7.4292241 
0.06358847512852886 4:0.5 5:1.0 6:0.0743122 11:0.03125 22:1.2502431 119:5.414321 417:5.724476 2390:7.023759 
0.03327184482348304 4:0.5 5:1.0 6:0.1244466 11:0.03125 16:2.1284098 236:3.3432478 240:5.126639 2391:7.4292241 
0.00939040598016149 4:0.5 5:1.0 6:0.0685285 11:0.0625 16:2.1284098 116:6.1764611 1393:6.1764611 1454:5.724476 2397:7.4292241 
0.2509812903277855 4:0.5 5:1.0 6:0.1111095 11:0.0625 34:4.5388523 657:4.9443174 716:3.5684944 848:4.2937298 1207:6.0429297 
1.0 4:0.5 5:1.0 6:0.2221771 11:0.09375 16:2.1284098 17:3.8596914 18:3.6915544 19:3.7035306 70:1.0 220:3.6915544 273:6.0429297 
0.0042838676998355404 4:0.5 5:1.0 6:0.0566581 11:0.0625 22:1.2502431 1253:4.986877 2406:6.7360769 2407:7.4292241 2408:7.4292241 
0.012838022455730118 4:0.5 5:1.0 6:0.0911344 11:0.09375 16:2.1284098 272:4.5960107 657:4.9443174 1253:4.986877 2410:7.4292241 2411:7.4292241 
0.014228445775351026 4:0.5 5:1.0 6:0.0701701 11:0.0625 22:1.2502431 655:5.414321 1611:5.2319995 2417:6.5129333 2418:7.4292241 
0.01067635499090428 4:0.5 5:1.0 6:0.0401357 11:0.0625 238:3.6915544 731:6.5129333 1203:6.5129333 1969:12.6612235 
0.46143768089819137 4:0.5 5:1.0 6:0.0936023 22:1.2502431 414:5.9251467 1611:5.2319995 
0.06781986718573739 4:0.5 5:1.0 6:0.0590989 22:1.2502431 1699:7.023759 2043:6.7360769 
0.009358133786411179 4:0.5 5:1.0 6:0.0346448 11:0.1875 98:5.724476 236:3.3432478 701:7.023759 2439:7.4292241 2440:7.4292241 2441:7.4292241 2442:7.4292241 2443:7.023759 2444:7.4292241 
0.046827582027154646 4:0.5 5:1.0 6:0.104212 11:0.3125 218:4.4588096 223:4.4087992 224:7.431304 227:5.3497825 278:3.8596914 304:5.414321 1152:7.023759 1153:6.7360769 1270:6.5129333 1873:6.5129333 2454:6.5129333 2455:7.023759 
0.026396799660637422 4:0.5 5:1.0 6:0.0384294 11:0.03125 349:3.9634882 545:6.7360769 645:7.023759 2456:6.3306118 
0.005087446788313235 4:0.5 5:1.0 6:0.0282165 11:0.15625 497:5.3497825 879:5.6374646 1343:5.3497825 2460:7.4292241 2461:7.023759 2462:7.4292241 2463:7.4292241 2464:7.023759 
0.014178613257907783 4:0.5 5:1.0 6:0.0550096 11:0.1875 198:4.8265344 261:6.1764611 262:7.023759 457:4.9034954 475:5.724476 772:6.0429297 1319:5.2891579 2173:6.5129333 2465:6.1764611 
0.008178851853709649 4:0.5 5:1.0 6:0.0490362 11:0.15625 16:2.1284098 765:7.023759 1722:5.724476 2465:6.1764611 2467:7.4292241 2468:7.023759 2469:7.4292241 2470:7.4292241 
0.40880309433152373 4:0.5 5:1.0 6:0.177514 7:2.6293098 11:0.03125 26:4.7901667 96:4.0970196 121:3.9952369 
0.22116192206808785 4:0.5 5:1.0 6:0.051879 161:5.9251467 552:4.3157088 1216:5.6374646 
0.010729344992014085 4:0.5 5:1.0 6:0.0980597 11:0.03125 22:1.2502431 198:4.8265344 534:4.4087992 2476:7.4292241 
0.054729934583887474 4:0.5 5:1.0 6:0.1102804 11:0.03125 22:1.2502431 34:4.5388523 96:4.0970196 2481:7.4292241 
0.0037096922837903516 4:0.5 5:1.0 6:0.0042575 2491:7.4292241 2492:7.4292241 2493:7.4292241 
1.0 4:0.5 5:1.0 6:0.170425 22:1.2502431 121:3.9952369 141:4.6258637 
3.466430103767423E-4 4:0.5 5:1.0 6:0.0192645 1006:5.3497825 1923:6.5129333 2502:7.4292241 
0.003618769789527482 4:0.5 5:1.0 6:0.089739 11:0.09375 267:4.986877 278:3.8596914 322:6.0429297 848:4.2937298 1523:4.5670232 2205:7.023759 
0.002043237485710879 4:0.5 5:1.0 6:0.0149742 1387:5.9251467 1985:6.7360769 2510:7.023759 
0.00815924185312426 4:0.5 5:1.0 6:0.0768974 22:1.2502431 644:5.2891579 1869:7.023759 
0.005956608674123478 4:0.5 5:1.0 6:0.0170927 11:0.21875 476:5.9251467 1194:6.7360769 1602:6.5129333 2518:7.023759 2519:7.4292241 2520:7.023759 2521:7.4292241 2522:6.7360769 2523:7.4292241 2524:7.4292241 
0.047361280962920624 4:0.5 5:1.0 6:0.1084915 7:2.6293098 11:0.0625 87:6.5129333 410:3.873876 485:4.3847016 875:7.023759 
0.07791655915215186 4:0.5 5:1.0 6:0.1330383 11:0.1875 22:1.2502431 66:3.6915544 223:4.4087992 224:3.715652 858:4.2722236 1155:5.414321 1846:7.023759 2535:6.3306118 2536:7.4292241 
0.098449585407452 4:0.5 5:1.0 6:0.0803348 22:1.2502431 1263:5.2891579 2541:6.7360769 
0.06737978141860582 4:0.5 5:1.0 6:0.0568834 11:0.09375 31:4.688384 90:4.3611711 859:5.2319995 892:6.5129333 2087:6.1764611 2479:7.023759 
0.006266458069983741 4:0.5 5:1.0 6:0.0413736 11:0.09375 236:3.3432478 319:6.7360769 558:5.6374646 2561:7.4292241 2562:7.4292241 2563:7.4292241 
0.12067672988807272 4:0.5 5:1.0 6:0.0713417 11:0.03125 141:4.6258637 143:5.5574219 145:5.9251467 343:4.2937298 
1.7397940766112775E-4 4:0.5 5:1.0 6:0.0732193 22:1.2502431 642:6.0429297 1548:6.5129333 
0.04111745331095516 4:0.5 5:1.0 6:0.0855036 11:0.0625 12:4.0970196 25:4.9443174 246:3.6450344 1480:6.5129333 2507:6.5129333 
0.02120559402484037 4:0.5 5:1.0 6:0.1360733 7:2.6293098 11:0.09375 18:3.6915544 19:3.7035306 77:4.7550754 1018:5.9251467 2583:7.4292241 
0.006629285623760876 4:0.5 5:1.0 6:0.0509142 22:1.2502431 2587:7.4292241 2588:7.4292241 
0.08319263980918243 4:0.5 5:1.0 6:0.0216599 517:5.8197862 2007:5.8197862 2589:7.023759 
0.004786335981595071 1:4.3847016 4:0.5 5:1.0 6:0.0323076 2590:6.7360769 2591:7.023759 
0.09364503063183985 4:0.5 5:1.0 6:0.0897047 11:0.0625 16:2.1284098 36:5.3497825 2053:5.0313288 2594:6.5129333 2595:6.1764611 
0.004184066156351403 4:0.5 5:1.0 6:0.0133648 11:0.0625 726:6.7360769 942:5.9251467 2596:7.023759 2597:7.4292241 2598:7.4292241 
0.01401081208288696 4:0.5 5:1.0 6:0.0177836 11:0.09375 659:6.5129333 1143:5.9251467 2599:7.4292241 2600:7.023759 2601:6.3306118 2602:7.4292241 
0.02682196032102947 4:0.5 5:1.0 6:0.0847529 11:0.03125 22:1.2502431 70:1.0 220:3.6915544 1693:7.023759 2606:7.4292241 
0.03538059628898197 4:0.5 5:1.0 6:0.0915217 11:0.03125 246:3.6450344 648:4.9034954 649:6.0429297 2057:4.7211739 
0.060650469811090756 4:0.5 5:1.0 6:0.0162164 373:6.7360769 1888:5.5574219 2610:7.4292241 
0.025481502826729 4:0.5 5:1.0 6:0.0847529 11:0.03125 22:1.2502431 70:1.0 220:3.6915544 1910:7.023759 2611:7.4292241 
0.013550856058880066 4:0.5 5:1.0 6:0.10713 11:0.03125 22:1.2502431 236:3.3432478 2454:6.5129333 2613:6.5129333 
0.009823000724259894 4:0.5 5:1.0 6:0.0325726 11:0.09375 299:4.7211739 595:5.3497825 1470:6.5129333 2619:7.023759 2620:6.7360769 2621:7.4292241 
0.02555084696036304 4:0.5 5:1.0 6:0.0171528 11:0.125 253:6.5129333 1485:5.724476 2166:7.023759 2622:7.4292241 2623:6.7360769 2624:7.023759 2625:7.4292241 
0.00618721908026241 4:0.5 5:1.0 6:0.0163164 976:5.8197862 2634:7.4292241 2635:6.3306118 
0.07346915127457168 4:0.5 5:1.0 6:0.0863578 11:0.09375 22:1.2502431 66:3.6915544 1415:6.3306118 1768:5.4833139 1834:6.7360769 1868:7.023759 
0.04105007874860304 4:0.5 5:1.0 6:0.0618115 11:0.03125 22:1.2502431 79:5.9251467 2650:6.3306118 2651:7.023759 
0.006627468667726282 4:0.5 5:1.0 6:0.0509142 22:1.2502431 2660:7.4292241 2661:7.4292241 
0.016956121410690736 4:0.5 5:1.0 6:0.0537402 11:0.125 34:4.5388523 457:4.9034954 1103:6.3306118 1160:5.5574219 1467:5.414321 2078:6.7360769 2663:7.023759 
0.009234626499897649 4:0.5 5:1.0 6:0.0491583 11:0.09375 22:1.2502431 439:6.5129333 1809:6.7360769 2305:6.1764611 2676:7.4292241 2677:6.7360769 
0.012276478983301363 4:0.5 5:1.0 6:0.0486184 11:0.09375 235:4.4087992 716:3.5684944 2510:7.023759 2683:7.4292241 2684:7.023759 2685:7.4292241 
0.02539660143126906 4:0.5 5:1.0 6:0.0451177 11:0.15625 343:4.2937298 534:4.4087992 1206:5.8197862 1217:6.1764611 1320:6.7360769 2689:7.4292241 2690:7.4292241 2691:7.4292241 
0.0063773375898501525 4:0.5 5:1.0 6:0.0538078 7:2.6293098 11:0.25 252:5.8197862 528:5.8197862 641:6.5129333 2021:6.0429297 2692:6.7360769 2693:6.1764611 2694:7.4292241 2695:7.4292241 2696:6.7360769 2697:7.4292241 
0.002900832879940878 4:0.5 5:1.0 6:0.1054132 22:1.2502431 848:4.2937298 2045:6.5129333 
7.783386263701421E-4 4:0.5 5:1.0 6:0.0885375 7:2.6293098 699:4.5670232 2717:7.4292241 
0.015287731758318004 4:0.5 5:1.0 6:0.0211489 11:0.03125 607:5.724476 1216:5.6374646 1262:7.023759 2718:7.4292241 
0.009563202679894118 4:0.5 5:1.0 6:0.0225641 11:0.09375 165:5.2891579 1329:6.7360769 1571:6.7360769 1667:7.023759 2465:6.1764611 2737:7.4292241 
0.45637493960606507 4:0.5 5:1.0 6:0.0279519 737:5.414321 1472:6.1764611 1473:6.1764611 
0.0317328719828586 4:0.5 5:1.0 6:0.0587594 11:0.1875 22:1.2502431 557:4.8265344 1188:6.3306118 1356:7.023759 1499:6.3306118 1616:6.5129333 2392:5.8197862 2743:7.4292241 2744:7.023759 
0.030338144535461447 4:0.5 5:1.0 6:0.1007196 11:0.03125 22:1.2502431 121:3.9952369 385:5.4833139 2746:7.023759 
0.0012046881207464122 4:0.5 5:1.0 6:0.0802802 7:2.6293098 11:0.34375 66:3.6915544 103:7.0545028 477:4.1905456 2437:6.1764611 2750:7.4292241 2751:22.2876722 2752:7.4292241 2753:7.4292241 2754:7.4292241 2755:7.4292241 
0.010292018935013345 4:0.5 5:1.0 6:0.0649466 11:0.125 278:3.8596914 411:4.5388523 560:5.414321 712:5.5574219 2656:6.7360769 2760:6.3306118 2761:7.023759 
0.01007131677765397 4:0.5 5:1.0 6:0.0598719 11:0.03125 22:1.2502431 945:5.126639 2762:7.4292241 2763:7.4292241 
0.0017240832119872758 4:0.5 5:1.0 6:0.010651 11:0.0625 1572:7.023759 2456:6.3306118 2764:7.023759 2765:7.4292241 2766:7.4292241 
0.02609324270259153 4:0.5 5:1.0 6:0.0639955 22:1.2502431 1183:5.9251467 2767:7.4292241 
0.016152092643383333 4:0.5 5:1.0 6:0.0749602 11:0.125 22:1.2502431 146:5.6374646 848:4.2937298 1482:5.724476 1949:6.7360769 2773:6.5129333 2774:7.4292241 
0.15735614782741797 4:0.5 5:1.0 6:0.1835461 11:0.03125 17:3.8596914 18:3.6915544 19:3.7035306 21:4.1905456 
0.0616440908106101 4:0.5 5:1.0 6:0.0207 610:6.5129333 811:5.8197862 1230:6.3306118 
0.03744436090572079 4:0.5 5:1.0 6:0.0302182 11:0.15625 79:5.9251467 165:5.2891579 960:6.5129333 1369:6.7360769 1439:13.0258667 1903:5.9251467 2184:7.023759 
0.020578456424125893 4:0.5 5:1.0 6:0.0760768 11:0.15625 22:1.2502431 80:4.8265344 177:4.1520793 181:6.0429297 501:5.724476 2788:7.4292241 2789:7.4292241 2790:7.4292241 
0.016645723452006506 4:0.5 5:1.0 6:0.0994289 22:1.2502431 121:3.9952369 2794:7.4292241 
0.0457010289014191 4:0.5 5:1.0 6:0.0469766 11:0.03125 29:5.2891579 411:4.5388523 597:5.6374646 2798:7.023759 
0.13003376422157342 4:0.5 6:0.1497439 11:0.03125 22:1.2502431 56:3.5374038 59:1.0 336:4.3847016 337:6.1764611 
0.003470861688592266 4:0.5 5:1.0 6:0.0618733 11:0.03125 17:3.8596914 21:4.1905456 2808:6.7360769 2809:7.4292241 
0.02437574923273782 4:0.5 5:1.0 6:0.0666502 11:0.09375 16:2.1284098 1166:5.9251467 1273:5.6374646 1461:7.023759 1989:6.0429297 2826:7.023759 
0.002462033428282705 1:4.3847016 4:0.5 5:1.0 6:0.122052 11:0.03125 16:2.1284098 687:4.07932 2831:7.4292241 
0.013570366571340376 4:0.5 5:1.0 6:0.024243 11:0.0625 47:4.3611711 1665:7.023759 2564:7.023759 2834:7.4292241 2835:7.4292241 
0.21095557369001564 4:0.5 5:1.0 6:0.0760932 11:0.03125 22:1.2502431 809:6.0429297 1885:5.414321 2197:6.3306118 
0.002232967632457697 4:0.5 5:1.0 6:0.0739348 11:0.03125 236:3.3432478 2057:4.7211739 2836:6.1764611 2837:6.5129333 
0.008844314107434999 4:0.5 5:1.0 6:0.0404907 11:0.03125 143:5.5574219 244:4.2511702 1425:6.7360769 2849:7.4292241 
0.005225430263813474 4:0.5 5:1.0 6:0.0646712 7:2.6293098 946:6.1764611 2852:7.4292241 
0.01405774002054481 4:0.5 5:1.0 6:0.02463 11:0.0625 337:6.1764611 940:5.6374646 1520:5.4833139 2860:7.4292241 2861:7.4292241 
0.029233548398962677 4:0.5 5:1.0 6:0.078773 11:0.03125 16:2.1284098 996:5.126639 1724:6.3306118 1736:7.023759 
0.022299754449254475 4:0.5 5:1.0 6:0.0827713 22:1.2502431 77:4.7550754 2870:7.4292241 
0.05267064406445786 4:0.5 5:1.0 6:0.0961612 11:0.03125 18:3.6915544 19:3.7035306 1023:5.724476 1050:6.1764611 
0.09430449679017655 4:0.5 5:1.0 6:0.1021201 11:0.09375 12:4.0970196 66:3.6915544 479:4.986877 590:5.4833139 1253:4.986877 2609:6.3306118 
0.010377438172822774 4:0.5 5:1.0 6:0.0911322 7:2.6293098 11:0.1875 103:3.5272514 244:4.2511702 593:5.126639 923:5.724476 2896:7.4292241 2897:7.4292241 2898:7.4292241 2899:7.4292241 
0.033865794580966446 4:0.5 5:1.0 6:0.0335695 11:0.0625 214:4.688384 723:5.8197862 1785:6.5129333 1792:6.3306118 2901:7.4292241 
0.006507350821137981 4:0.5 5:1.0 6:0.0183316 11:0.0625 140:4.8642747 2906:7.023759 2907:7.4292241 2908:7.4292241 2909:7.4292241 
0.7638289550091046 4:0.5 5:1.0 6:0.0424335 11:0.03125 1416:5.126639 1678:5.4833139 1679:6.1764611 2453:5.724476 
0.836188216138783 4:0.5 5:1.0 6:0.2121284 22:1.2502431 54:3.4310234 90:4.3611711 
0.016764201640856416 4:0.5 5:1.0 6:0.0641871 11:0.09375 16:2.1284098 684:6.3306118 685:6.0429297 1364:5.4833139 2911:7.023759 2912:7.4292241 
0.014796869921498068 4:0.5 5:1.0 6:0.0285618 11:0.09375 627:5.3497825 1320:6.7360769 1608:6.7360769 1883:5.414321 2656:6.7360769 2914:7.023759 
0.010836507034116236 4:0.5 5:1.0 6:0.1032063 11:0.125 16:2.1284098 18:3.6915544 19:3.7035306 912:7.023759 1412:5.9251467 2920:7.4292241 2921:7.4292241 
0.01849884442234099 4:0.5 5:1.0 6:0.0423908 11:0.09375 283:4.7901667 349:3.9634882 2923:7.4292241 2924:7.023759 2925:7.4292241 2926:6.7360769 
0.03372494509772135 4:0.5 5:1.0 6:0.0213178 11:0.0625 159:5.9251467 163:6.1764611 1023:5.724476 2935:7.4292241 2936:7.4292241 
0.02138990653714358 4:0.5 5:1.0 6:0.0829462 11:0.1875 16:2.1284098 150:5.2319995 238:3.6915544 1292:6.1764611 1399:5.3497825 1557:6.5129333 2944:7.4292241 2945:7.023759 2946:7.4292241 
0.08195861320880768 4:0.5 5:1.0 6:0.0778561 22:1.2502431 1611:5.2319995 2949:7.023759 
0.020397526395238917 4:0.5 5:1.0 6:0.0353637 11:0.03125 411:4.5388523 647:5.2891579 2628:7.023759 2955:7.4292241 
0.00927647462910778 4:0.5 5:1.0 6:0.1103515 11:0.09375 16:2.1284098 18:3.6915544 19:3.7035306 791:6.5129333 2958:7.023759 2959:7.4292241 
0.0037512716767839354 4:0.5 5:1.0 6:0.0470584 11:0.1875 238:3.6915544 887:5.9251467 1204:5.414321 1692:6.5129333 2175:5.8197862 2640:6.1764611 2962:7.4292241 2963:7.4292241 2964:7.4292241 
0.18120381595411886 4:0.5 5:1.0 6:0.1191684 11:0.09375 70:1.0 120:5.2319995 121:3.9952369 122:4.986877 468:4.2305509 713:4.5670232 744:4.986877 
0.010264164132117167 4:0.5 5:1.0 6:0.0641496 11:0.03125 22:1.2502431 267:4.986877 2966:7.4292241 2967:7.023759 
0.012995630121535621 4:0.5 5:1.0 6:0.0381416 11:0.03125 17:3.8596914 903:6.5129333 904:6.7360769 2970:7.4292241 
0.3057549482730186 4:0.5 6:0.1356874 11:0.03125 22:1.2502431 56:3.5374038 59:1.0 817:5.1779323 2498:5.8197862 
0.007994605758293577 4:0.5 5:1.0 6:0.0545733 11:0.15625 16:2.1284098 887:5.9251467 1382:6.0429297 1492:6.7360769 2175:5.8197862 2977:7.4292241 2978:7.4292241 2979:7.4292241 
0.003946375362533427 4:0.5 5:1.0 6:0.056574 11:0.3125 96:4.0970196 103:7.0545028 2302:6.3306118 2980:7.4292241 2981:7.4292241 2982:7.4292241 2983:7.4292241 2984:7.4292241 2985:7.4292241 2986:7.4292241 2987:7.4292241 2988:7.4292241 
0.030371686568488907 4:0.5 5:1.0 6:0.034512 11:0.0625 90:4.3611711 95:5.3497825 1368:7.023759 2989:7.4292241 2990:7.023759 
0.15745094055145556 4:0.5 5:1.0 6:0.0278064 11:0.03125 70:1.0 1123:5.1779323 1267:6.7360769 1268:6.7360769 1781:6.1764611 
0.003494363133062125 4:0.5 5:1.0 6:0.0210133 11:0.15625 358:5.9251467 666:6.5129333 834:6.7360769 1482:5.724476 2995:6.7360769 2996:7.4292241 2997:7.4292241 2998:7.4292241 
0.050951236771742264 4:0.5 5:1.0 6:0.0715723 11:0.125 63:5.3497825 218:4.4588096 246:3.6450344 252:5.8197862 436:6.7360769 464:5.9251467 1104:7.023759 
0.005258507753406529 4:0.5 5:1.0 6:0.0574777 11:0.375 96:4.0970196 137:6.7360769 432:4.5670232 664:5.3497825 716:3.5684944 1371:5.4833139 3009:7.023759 3010:7.4292241 3011:7.4292241 3012:7.4292241 3013:7.4292241 3014:7.4292241 3015:7.4292241 3016:7.4292241 3017:7.4292241 
1.0 4:0.5 5:1.0 6:0.0980526 22:1.2502431 557:4.8265344 1016:6.1764611 
0.12367952097656508 4:0.5 5:1.0 6:0.1003665 11:0.03125 22:1.2502431 70:1.0 220:3.6915544 692:6.7360769 1944:6.1764611 
0.007470152229882208 4:0.5 5:1.0 6:0.0403149 11:0.34375 705:6.3306118 754:6.1764611 789:6.7360769 1063:5.9251467 1167:5.126639 1298:12.3529222 1364:5.4833139 1587:6.5129333 1731:7.023759 1833:6.5129333 2287:6.3306118 2626:7.023759 3027:7.4292241 
0.973702760546649 4:0.5 5:1.0 6:0.1008936 22:1.2502431 616:4.2305509 3038:7.023759 
0.0214069649221759 4:0.5 5:1.0 6:0.0584954 11:0.1875 16:2.1284098 1196:6.0429297 1269:5.9251467 1341:6.7360769 1386:5.8197862 3051:6.5129333 3052:6.5129333 3053:7.4292241 3054:7.023759 
0.014700999550763727 4:0.5 5:1.0 6:0.0752058 7:2.6293098 11:0.03125 112:4.9034954 2658:6.1764611 3057:7.4292241 
0.013309286315944387 4:0.5 5:1.0 6:0.0715264 11:0.0625 16:2.1284098 1533:5.9251467 2305:6.1764611 2534:6.1764611 2665:6.5129333 
0.002277988393773178 4:0.5 5:1.0 6:0.025697 11:0.0625 199:5.8197862 799:5.9251467 923:5.724476 3058:6.7360769 3059:7.4292241 
0.002023956781517189 4:0.5 5:1.0 6:0.0690997 11:0.03125 22:1.2502431 1333:5.2319995 2266:6.0429297 3075:7.4292241 
0.027185064773369825 4:0.5 5:1.0 6:0.0279909 11:0.03125 34:4.5388523 3076:7.4292241 3077:6.7360769 3078:6.5129333 
0.13974485755233565 4:0.5 5:1.0 6:0.0516284 346:4.2722236 1387:5.9251467 2806:5.724476 
0.035173245203556726 4:0.5 5:1.0 6:0.0384392 11:0.03125 828:5.3497825 1034:6.3306118 1199:5.6374646 3094:5.8197862 
0.01526877517106391 3:3.9634882 4:0.5 5:1.0 6:0.075285 11:0.125 317:4.1711275 716:3.5684944 974:6.7360769 2427:7.023759 2801:6.7360769 3095:7.4292241 
0.19094202514236563 4:0.5 5:1.0 6:0.0883721 11:0.03125 22:1.2502431 1628:4.986877 1888:5.5574219 3100:6.3306118 
0.012269753137298074 4:0.5 5:1.0 6:0.0957525 11:0.0625 22:1.2502431 534:4.4087992 1090:5.5574219 1224:5.9251467 1963:6.1764611 
0.018719228684965682 4:0.5 5:1.0 6:0.0497669 11:0.0625 263:6.3306118 716:3.5684944 1226:6.7360769 1227:5.724476 1228:6.7360769 
0.04258465963601389 4:0.5 5:1.0 6:0.0471575 11:0.125 618:6.0429297 716:3.5684944 1204:5.414321 2888:7.023759 3093:6.1764611 3109:7.4292241 3110:7.023759 
0.1992247724100998 4:0.5 5:1.0 6:0.0804391 11:0.0625 22:1.2502431 366:5.9251467 1287:6.1764611 1611:5.2319995 1842:5.8197862 
0.06224570577064692 4:0.5 5:1.0 6:0.1118161 11:0.03125 22:1.2502431 283:4.7901667 410:3.873876 3118:7.4292241 
0.2825547740029181 4:0.5 5:1.0 6:0.1351167 11:0.03125 22:1.2502431 66:3.6915544 2057:4.7211739 2836:6.1764611 
0.018123078040358086 4:0.5 5:1.0 6:0.0783322 11:0.125 16:2.1284098 70:1.0 100:6.3306118 220:3.6915544 818:5.2891579 3133:7.4292241 3134:7.4292241 3135:7.4292241 
0.021199921668387987 4:0.5 5:1.0 6:0.0922927 11:0.03125 22:1.2502431 66:3.6915544 1727:6.3306118 3136:7.4292241 
0.03192158486942212 4:0.5 5:1.0 6:0.065774 7:2.6293098 11:0.0625 319:6.7360769 1123:5.1779323 2275:6.7360769 3138:6.7360769 
0.047847295210899136 1:4.3847016 4:0.5 5:1.0 6:0.1179503 11:0.09375 22:1.2502431 976:5.8197862 1523:4.5670232 2057:4.7211739 2635:6.3306118 
0.17563548064023402 4:0.5 5:1.0 6:0.0486158 11:0.09375 427:6.1764611 560:5.414321 723:5.8197862 2057:4.7211739 2228:5.9251467 3140:6.3306118 
0.0020211924354055183 4:0.5 5:1.0 6:0.0690551 11:0.0625 198:4.8265344 236:3.3432478 1200:5.8197862 1264:6.3306118 1265:6.7360769 
0.0027997878719749564 4:0.5 5:1.0 6:0.0049162 11:0.03125 3141:7.4292241 3142:7.4292241 3143:7.4292241 3144:7.4292241 
0.41450250982127096 4:0.5 5:1.0 6:0.0645852 11:0.03125 207:5.6374646 238:3.6915544 412:6.3306118 1780:5.414321 
0.0016962048841472402 4:0.5 5:1.0 6:0.0762622 11:0.09375 22:1.2502431 47:4.3611711 406:4.8642747 1511:6.5129333 3149:7.4292241 3150:7.4292241 
0.02206330827497083 4:0.5 5:1.0 6:0.0941369 8:4.6566353 11:0.0625 16:2.1284098 80:4.8265344 271:6.5129333 3160:7.023759 
0.001599327948760602 4:0.5 5:1.0 6:0.0617824 11:0.125 22:1.2502431 329:5.6374646 346:4.2722236 1810:7.023759 3161:7.023759 3162:7.4292241 3163:7.4292241 
4.6287247156964143E-4 4:0.5 5:1.0 6:0.0480088 11:0.0625 238:3.6915544 309:4.6258637 3165:7.4292241 3166:7.023759 3167:7.4292241 
0.9919621084765892 4:0.5 5:1.0 6:0.1288708 11:0.0625 16:2.1284098 175:5.2891579 425:4.6258637 428:4.1150381 1214:6.3306118 
0.04556817652292028 4:0.5 5:1.0 6:0.0135666 11:0.03125 455:6.7360769 1295:6.1764611 1296:6.7360769 3168:7.4292241 
0.46712623616783444 4:0.5 5:1.0 6:0.1082387 11:0.09375 70:1.0 96:4.0970196 220:3.6915544 236:3.3432478 877:5.8197862 1206:5.8197862 3170:7.023759 
0.07683530383840623 4:0.5 5:1.0 6:0.0352388 11:0.0625 12:4.0970196 2496:6.7360769 2497:7.023759 2534:6.1764611 2700:7.023759 
0.010089642929531094 4:0.5 5:1.0 6:0.0396238 11:0.125 141:4.6258637 497:5.3497825 790:6.0429297 818:5.2891579 3171:7.4292241 3172:7.4292241 3173:7.4292241 
0.035811153643270845 4:0.5 6:0.1100932 11:0.03125 22:1.2502431 56:3.5374038 59:1.0 1454:5.724476 3177:6.7360769 
0.0037369455409163883 4:0.5 5:1.0 6:0.0516946 11:0.125 23:4.7211739 817:5.1779323 1434:5.414321 1570:6.1764611 1646:7.023759 3094:5.8197862 3184:6.5129333 
0.012188633031432977 4:0.5 5:1.0 6:0.0327093 11:0.125 716:3.5684944 971:7.023759 2154:6.3306118 2471:7.023759 3192:7.4292241 3193:7.4292241 3194:7.4292241 
0.003506753950522793 4:0.5 5:1.0 6:0.032622 11:0.09375 141:4.6258637 1246:6.1764611 1400:5.414321 3195:7.4292241 3196:7.4292241 3197:7.023759 
0.022349870001337886 4:0.5 5:1.0 6:0.0449813 11:0.09375 93:4.4087992 410:3.873876 2808:6.7360769 3200:7.4292241 3201:7.4292241 3202:7.4292241 
0.04507246105496295 4:0.5 5:1.0 6:0.10416 11:0.03125 22:1.2502431 432:4.5670232 534:4.4087992 3203:7.4292241 
0.05586481767497469 4:0.5 5:1.0 6:0.0284202 11:0.03125 749:6.7360769 827:6.5129333 828:10.699565 
0.001634680877660389 4:0.5 5:1.0 6:0.0072907 11:0.0625 3208:7.4292241 3209:14.8584481 3210:7.4292241 3211:7.023759 
0.016649056259807036 4:0.5 5:1.0 6:0.0994289 22:1.2502431 121:3.9952369 3213:7.4292241 
0.21535471701590414 4:0.5 5:1.0 6:0.0932914 11:0.03125 22:1.2502431 242:5.126639 414:5.9251467 1398:5.414321 
0.12186125138235075 4:0.5 6:0.1086591 11:0.03125 22:1.2502431 56:3.5374038 59:1.0 1560:6.7360769 2498:5.8197862 
0.0068188653213848505 4:0.5 5:1.0 6:0.1088949 11:0.15625 22:1.2502431 64:4.5114533 353:4.5114533 354:5.1779323 423:5.9251467 699:4.5670232 769:5.8197862 3225:7.4292241 
0.04636148665826184 4:0.5 5:1.0 6:0.1165537 11:0.125 12:4.0970196 22:1.2502431 58:7.023759 353:4.5114533 420:4.986877 616:4.2305509 3230:7.4292241 
0.022462628650358987 4:0.5 5:1.0 6:0.068994 11:0.03125 238:3.6915544 716:3.5684944 3232:7.4292241 3233:7.4292241 
0.03523778846914693 4:0.5 5:1.0 6:0.0631792 11:0.15625 218:4.4588096 224:3.715652 1618:6.7360769 1911:4.986877 2361:5.9251467 2404:7.023759 3237:7.023759 3238:6.7360769 
0.010893081405568937 4:0.5 5:1.0 6:0.0291881 11:0.0625 97:5.4833139 796:5.4833139 2669:6.1764611 3240:7.023759 3241:7.023759 
0.1419401596317826 4:0.5 5:1.0 6:0.083705 11:0.09375 149:5.6374646 177:4.1520793 309:4.6258637 801:5.9251467 1037:4.9443174 1179:5.6374646 
0.6418559347359671 4:0.5 5:1.0 6:0.1376712 11:0.0625 22:1.2502431 77:4.7550754 177:4.1520793 1036:5.5574219 1037:4.9443174 
0.008526500058759396 4:0.5 5:1.0 6:0.0168645 11:0.125 88:6.1764611 1042:5.414321 3250:7.4292241 3251:7.4292241 3252:7.4292241 3253:7.4292241 3254:7.4292241 
0.0056265836124693965 4:0.5 5:1.0 6:0.1214331 7:2.6293098 8:4.6566353 11:0.15625 103:3.5272514 121:3.9952369 797:5.0313288 1647:6.5129333 3258:7.4292241 3259:6.7360769 
0.08231812707883143 4:0.5 5:1.0 6:0.1003148 7:2.6293098 11:0.03125 244:4.2511702 999:6.5129333 1386:5.8197862 
0.006969897814917258 4:0.5 5:1.0 6:0.0535219 11:0.0625 22:1.2502431 454:6.5129333 922:7.023759 2693:6.1764611 3260:6.7360769 
0.0047658700656834216 4:0.5 5:1.0 6:0.0800081 11:0.1875 16:2.1284098 246:3.6450344 428:4.1150381 2878:6.5129333 3264:7.4292241 3265:7.023759 3266:7.4292241 3267:7.4292241 3268:7.023759 
0.028048257539263287 4:0.5 5:1.0 6:0.0882962 11:0.0625 12:4.0970196 22:1.2502431 63:5.3497825 1403:6.3306118 3269:7.4292241 
0.11516706101197603 4:0.5 5:1.0 6:0.1130373 11:0.09375 16:2.1284098 140:4.8642747 592:4.3847016 1167:5.126639 1501:5.6374646 2048:6.7360769 
0.026380962344664062 4:0.5 5:1.0 6:0.0294392 11:0.03125 95:5.3497825 763:6.7360769 1403:6.3306118 1831:5.9251467 
0.010524279179890425 4:0.5 5:1.0 6:0.078737 11:0.0625 22:1.2502431 77:4.7550754 1055:5.2891579 2727:6.7360769 2728:7.023759 
0.5452657703327518 4:0.5 5:1.0 6:0.1540039 11:0.03125 22:1.2502431 288:5.4833139 410:3.873876 485:4.3847016 
0.02035015448918797 4:0.5 5:1.0 6:0.0420132 11:0.0625 535:4.2722236 847:6.1764611 859:5.2319995 3289:7.023759 3290:7.4292241 
0.016208966267780203 4:0.5 5:1.0 6:0.0579582 11:0.21875 16:2.1284098 229:5.724476 315:4.9443174 2045:6.5129333 2464:7.023759 2764:7.023759 3295:7.4292241 3296:7.023759 3297:6.7360769 3298:6.7360769 
0.019160144014400284 4:0.5 5:1.0 6:0.0703243 22:1.2502431 696:5.724476 3299:7.023759 
0.251664400756667 4:0.5 5:1.0 6:0.1627733 22:1.2502431 244:4.2511702 699:4.5670232 
0.7721535997404544 4:0.5 5:1.0 6:0.0868125 22:1.2502431 294:4.7550754 3304:7.023759 
0.030921053318506475 4:0.5 5:1.0 6:0.0894761 7:2.6293098 11:0.25 79:5.9251467 103:3.5272514 145:5.9251467 309:4.6258637 511:5.2319995 1651:6.3306118 2068:7.023759 2171:6.7360769 3305:7.023759 3306:7.4292241 
0.0028454173666715593 4:0.5 5:1.0 6:0.0346908 11:0.03125 606:5.5574219 1055:5.2891579 1348:5.8197862 3307:7.023759 
1.4239209634540887E-4 4:0.5 5:1.0 6:0.0351213 11:0.125 236:3.3432478 396:6.7360769 1552:7.023759 3310:7.4292241 3311:7.023759 3312:7.4292241 3313:7.023759 
0.0012085721365665393 4:0.5 5:1.0 6:0.0479283 11:0.125 22:1.2502431 2057:4.7211739 3152:7.023759 3323:7.4292241 3324:7.4292241 3325:7.4292241 3326:7.4292241 
0.02396437628407157 4:0.5 5:1.0 6:0.024788 11:0.03125 331:6.3306118 332:6.1764611 1084:7.023759 1745:5.414321 
0.03642713799754018 4:0.5 5:1.0 6:0.0393698 11:0.15625 479:4.986877 859:5.2319995 2506:5.5574219 2856:6.7360769 3174:7.023759 3175:6.3306118 3330:6.7360769 3331:6.7360769 
0.025857644080847127 4:0.5 5:1.0 6:0.073849 7:2.6293098 11:0.03125 593:5.126639 1635:6.3306118 3332:7.023759 
0.0037104051386678332 4:0.5 5:1.0 6:0.0042575 3336:7.4292241 3337:7.4292241 3338:7.4292241 
0.01154361139111664 4:0.5 5:1.0 6:0.0511527 11:0.03125 22:1.2502431 231:6.0429297 3347:7.4292241 3348:7.4292241 
0.041571622880082405 4:0.5 5:1.0 6:0.0891069 7:2.6293098 34:4.5388523 3350:7.4292241 
0.03139234312120048 4:0.5 5:1.0 6:0.0702348 11:0.09375 22:1.2502431 314:5.1779323 809:6.0429297 1556:6.3306118 1885:5.414321 3358:7.4292241 
0.017078986382883493 4:0.5 5:1.0 6:0.0806957 11:0.15625 22:1.2502431 236:3.3432478 907:5.4833139 1155:5.414321 3370:7.4292241 3371:7.023759 3372:7.4292241 3373:6.5129333 
0.25109496319245556 4:0.5 5:1.0 6:0.2141573 11:0.03125 16:2.1284098 54:3.4310234 425:4.6258637 428:4.1150381 
0.019125334578526696 4:0.5 5:1.0 6:0.0286419 71:5.8197862 72:4.9443174 3383:7.4292241 
0.016185509995310085 4:0.5 5:1.0 6:0.0986954 11:0.03125 22:1.2502431 103:3.5272514 1092:6.5129333 2374:7.023759 
0.021518927901506956 4:0.5 5:1.0 6:0.0639955 22:1.2502431 159:5.9251467 3384:7.4292241 
0.04983857112438518 4:0.5 5:1.0 6:0.0545873 11:0.0625 214:4.688384 468:4.2305509 828:5.3497825 3386:7.023759 3387:7.4292241 
0.003942675367680788 4:0.5 5:1.0 6:0.0252229 11:0.0625 155:6.7360769 457:4.9034954 705:6.3306118 708:6.7360769 3390:7.4292241 
0.013856578887474496 4:0.5 5:1.0 6:0.0619365 11:0.03125 22:1.2502431 940:5.6374646 2370:6.3306118 3392:7.4292241 
0.12612791001955218 4:0.5 5:1.0 6:0.0381453 71:5.8197862 72:4.9443174 766:6.0429297 
0.9856357706456172 4:0.5 5:1.0 6:0.0283897 1216:5.6374646 1776:5.724476 3031:6.3306118 
0.04985369817249146 4:0.5 5:1.0 6:0.1019542 11:0.15625 16:2.1284098 165:5.2891579 410:7.747752 887:5.9251467 1291:6.0429297 3400:7.023759 3401:7.4292241 
0.0021195154361245984 4:0.5 5:1.0 6:0.0107605 11:0.03125 412:6.3306118 1759:7.023759 1760:7.023759 3405:7.4292241 
0.028170106875529562 4:0.5 5:1.0 6:0.0808972 11:0.03125 103:3.5272514 246:3.6450344 1410:6.5129333 3407:7.4292241 
0.22028390718254984 4:0.5 5:1.0 6:0.1834416 11:0.0625 16:2.1284098 17:3.8596914 20:4.9443174 21:4.1905456 141:4.6258637 
0.004919448009787359 4:0.5 5:1.0 6:0.0846527 7:2.6293098 9:5.2891579 11:0.03125 25:4.9443174 3409:7.4292241 
1.0 4:0.5 5:1.0 6:0.1101211 22:1.2502431 53:5.6374646 557:4.8265344 
0.0034249717476135394 4:0.5 5:1.0 6:0.0535044 11:0.34375 71:5.8197862 121:3.9952369 150:5.2319995 235:4.4087992 314:5.1779323 642:6.0429297 1275:6.7360769 1833:6.5129333 1965:6.7360769 2119:6.7360769 3427:7.4292241 3428:7.4292241 3429:14.8584481 
0.04388632467540237 4:0.5 6:0.0841777 11:0.09375 34:4.5388523 56:3.5374038 59:1.0 70:1.0 120:5.2319995 487:4.9443174 493:5.724476 3430:7.4292241 
0.016236395215053455 4:0.5 5:1.0 6:0.0543516 11:0.0625 22:1.2502431 635:5.724476 790:6.0429297 3436:7.4292241 3437:7.4292241 
0.06502943536982261 4:0.5 5:1.0 6:0.0459657 11:0.03125 443:5.724476 463:6.7360769 477:4.1905456 1211:6.0429297 
0.010874222118460092 4:0.5 5:1.0 6:0.0632928 11:0.15625 16:2.1284098 256:5.724476 1876:6.1764611 1877:6.1764611 2208:6.3306118 3046:6.7360769 3047:6.7360769 3395:6.5129333 
0.15123958581557062 4:0.5 5:1.0 6:0.0599092 11:0.09375 214:4.688384 360:5.6374646 491:6.0429297 1555:5.9251467 1655:5.414321 1716:5.2319995 
0.04500896393672984 3:3.9634882 4:0.5 5:1.0 6:0.1109133 11:0.125 22:1.2502431 309:4.6258637 511:5.2319995 1269:5.9251467 1722:5.724476 3364:6.5129333 
0.004843909394298295 4:0.5 5:1.0 6:0.0330828 11:0.0625 557:4.8265344 737:5.414321 1840:5.9251467 3440:7.4292241 3441:7.4292241 
0.006705077825240932 4:0.5 5:1.0 6:0.0475865 11:0.125 103:3.5272514 346:4.2722236 573:6.7360769 3447:7.4292241 3448:7.4292241 3449:7.4292241 3450:7.4292241 
0.0013802752582927204 4:0.5 5:1.0 6:0.0210587 11:0.0625 618:6.0429297 1784:5.4833139 1816:7.023759 1927:6.7360769 3451:7.4292241 
0.017057378672886484 4:0.5 5:1.0 6:0.0428249 11:0.0625 595:5.3497825 716:3.5684944 2352:7.023759 3452:7.4292241 3453:7.4292241 
0.02334570066950366 4:0.5 5:1.0 6:0.0527635 11:0.1875 140:4.8642747 283:4.7901667 315:4.9443174 386:5.126639 1562:7.023759 2601:6.3306118 3399:6.3306118 3454:7.4292241 3455:7.4292241 
0.003487724874528751 4:0.5 5:1.0 6:0.0529297 11:0.09375 31:4.688384 367:5.126639 1128:5.3497825 2360:6.7360769 2366:6.5129333 2806:5.724476 
1.0 4:0.5 5:1.0 6:0.156282 11:0.03125 22:1.2502431 66:3.6915544 535:4.2722236 2498:5.8197862 
0.0010936196331292822 4:0.5 5:1.0 6:0.0854252 11:0.0625 22:1.2502431 64:4.5114533 1139:5.4833139 1823:5.724476 3471:7.4292241 
0.0017402860210256332 4:0.5 5:1.0 6:0.0302847 11:0.0625 552:4.3157088 723:5.8197862 2911:7.023759 3477:7.4292241 3478:7.4292241 
0.01558491746986748 4:0.5 5:1.0 6:0.0529792 11:0.03125 22:1.2502431 962:6.7360769 1724:6.3306118 3479:7.4292241 
0.005589649485906506 4:0.5 5:1.0 6:0.1275469 11:0.25 16:2.1284098 66:3.6915544 80:4.8265344 240:5.126639 272:4.5960107 317:4.1711275 411:4.5388523 1380:13.0258667 1793:6.1764611 1951:5.8197862 
0.05826587198500754 4:0.5 5:1.0 6:0.0923386 11:0.03125 16:2.1284098 647:5.2891579 1055:5.2891579 1554:6.7360769 
0.055607135832231674 4:0.5 5:1.0 6:0.0640767 11:0.09375 31:4.688384 272:4.5960107 466:5.2319995 554:6.1764611 712:5.5574219 1164:6.5129333 
9.963711029096517E-4 4:0.5 5:1.0 6:0.1316624 19:3.7035306 310:5.126639 716:3.5684944 
0.0016699974248437712 4:0.5 5:1.0 6:0.0219673 11:0.0625 160:4.5670232 301:6.7360769 3480:7.4292241 3481:7.4292241 3482:7.4292241 
0.037082522132895146 4:0.5 6:0.1078344 11:0.03125 22:1.2502431 56:3.5374038 59:1.0 290:5.6374646 3485:7.023759 
0.0054424763104452345 4:0.5 5:1.0 6:0.0490919 11:0.15625 16:2.1284098 199:5.8197862 759:6.7360769 760:6.7360769 3395:6.5129333 3486:7.4292241 3487:7.4292241 3488:7.4292241 
0.06603357304940179 4:0.5 6:0.1230563 22:1.2502431 56:3.5374038 59:1.0 2541:6.7360769 
0.021194788450420214 4:0.5 5:1.0 6:0.0854887 11:0.125 22:1.2502431 47:4.3611711 485:4.3847016 1008:5.724476 1186:6.5129333 2530:6.7360769 3489:7.4292241 
0.014991668698793852 4:0.5 5:1.0 6:0.0842173 11:0.03125 22:1.2502431 244:4.2511702 2305:6.1764611 3497:7.4292241 
0.06780458833446458 4:0.5 5:1.0 6:0.0507601 1074:5.724476 1399:5.3497825 2057:4.7211739 
0.027752409520307223 4:0.5 5:1.0 6:0.0245789 11:0.0625 211:5.3497825 1297:5.8197862 1717:7.023759 3389:7.023759 3473:6.7360769 
0.03107113207977332 4:0.5 5:1.0 6:0.1071261 11:0.0625 22:1.2502431 25:4.9443174 66:3.6915544 695:5.6374646 3507:7.4292241 
0.18110507430553294 4:0.5 5:1.0 6:0.1046335 11:0.03125 93:4.4087992 244:4.2511702 283:4.7901667 284:5.0313288 
1.0 1:4.3847016 4:0.5 5:1.0 6:0.090384 11:0.03125 246:3.6450344 945:5.126639 2124:6.3306118 
0.031816083593435525 4:0.5 5:1.0 6:0.056238 7:2.6293098 11:0.03125 496:6.7360769 2880:6.3306118 3516:7.4292241 
0.0043728602862372215 4:0.5 5:1.0 6:0.1146549 7:2.6293098 11:0.125 315:4.9443174 410:3.873876 492:5.414321 552:4.3157088 3525:6.3306118 3526:7.4292241 
0.008540084002940962 4:0.5 5:1.0 6:0.1082911 11:0.0625 22:1.2502431 205:4.9034954 534:4.4087992 1611:5.2319995 3527:6.5129333 
0.00423562181380188 4:0.5 5:1.0 6:0.0281914 11:0.0625 104:6.1764611 557:4.8265344 1016:6.1764611 3158:7.023759 3528:7.4292241 
0.6848845557312387 4:0.5 5:1.0 6:0.0175523 11:0.03125 737:5.414321 1326:7.023759 1327:7.023759 1328:7.023759 
0.023927382511615178 4:0.5 5:1.0 6:0.0205807 11:0.0625 63:5.3497825 1205:6.3306118 1420:6.7360769 3529:7.4292241 3530:7.023759 
0.1584884160318027 4:0.5 5:1.0 6:0.118046 22:1.2502431 121:3.9952369 2071:6.3306118 
0.08763009372920333 4:0.5 5:1.0 6:0.1486595 11:0.0625 17:3.8596914 18:3.6915544 19:3.7035306 21:4.1905456 1970:6.3306118 
0.0649544755279713 4:0.5 6:0.0800463 56:3.5374038 59:1.0 534:4.4087992 2513:6.7360769 
0.355354252998262 4:0.5 5:1.0 6:0.1701886 22:1.2502431 66:3.6915544 967:4.9443174 
0.008489564158643631 4:0.5 5:1.0 6:0.0479907 11:0.0625 16:2.1284098 2023:7.023759 2024:7.023759 3531:7.4292241 3532:7.4292241 
0.00909823248886383 4:0.5 5:1.0 6:0.0497496 11:0.21875 236:3.3432478 1576:6.7360769 1911:4.986877 2158:6.7360769 2482:6.3306118 2669:6.1764611 3335:6.5129333 3541:7.023759 3542:7.023759 3543:7.4292241 
0.019645664687519118 4:0.5 5:1.0 6:0.1507644 11:0.28125 12:4.0970196 22:1.2502431 43:4.8265344 130:5.126639 218:4.4588096 223:4.4087992 224:3.715652 236:3.3432478 1683:6.5129333 2823:6.7360769 3557:7.4292241 3558:6.7360769 
0.15056475932545063 4:0.5 5:1.0 6:0.160039 11:0.09375 17:3.8596914 20:4.9443174 21:4.1905456 103:3.5272514 349:3.9634882 402:5.4833139 
0.021896760225599977 4:0.5 5:1.0 6:0.0238283 11:0.03125 171:5.126639 607:5.724476 3563:7.4292241 3564:7.4292241 
0.009160653162541561 4:0.5 5:1.0 6:0.0606328 11:0.15625 130:5.126639 346:4.2722236 410:3.873876 944:5.9251467 999:6.5129333 3565:7.4292241 3566:7.4292241 3567:6.5129333 
1.0 4:0.5 5:1.0 6:0.1577132 22:1.2502431 432:4.5670232 592:4.3847016 
0.005572218713877839 4:0.5 5:1.0 6:0.0220183 11:0.125 534:4.4087992 891:6.5129333 3583:7.4292241 3584:7.4292241 3585:7.4292241 3586:7.4292241 3587:7.4292241 
0.14733591343732538 4:0.5 5:1.0 6:0.1144273 7:2.6293098 797:5.0313288 1611:5.2319995 
0.006193188124005122 4:0.5 5:1.0 6:0.0639059 11:0.125 224:3.715652 304:5.414321 592:4.3847016 1206:5.8197862 1680:6.1764611 3588:7.4292241 3589:7.4292241 
0.0025482578212408223 4:0.5 5:1.0 6:0.0516616 11:0.4375 93:4.4087992 111:6.7360769 244:4.2511702 474:5.126639 479:4.986877 737:5.414321 990:6.0429297 1385:5.2891579 3438:6.7360769 3590:14.8584481 3591:7.4292241 3592:7.4292241 3593:14.8584481 3594:7.4292241 3595:7.4292241 
1.0862214236326624E-4 4:0.5 5:1.0 6:0.0438986 477:4.1905456 642:6.0429297 2428:6.5129333 
0.024578191960093903 4:0.5 5:1.0 6:0.113911 7:2.6293098 244:4.2511702 1455:6.3306118 
0.005258942814901545 4:0.5 5:1.0 6:0.0465318 11:0.125 16:2.1284098 970:5.8197862 3605:7.4292241 3606:7.4292241 3607:7.023759 3608:7.4292241 3609:7.4292241 
0.02469895626595486 4:0.5 5:1.0 6:0.076352 11:0.125 103:3.5272514 244:4.2511702 315:4.9443174 1248:6.3306118 1322:5.724476 3246:7.023759 3615:7.023759 
0.06400260453925886 4:0.5 5:1.0 6:0.1510415 11:0.0625 16:2.1284098 18:3.6915544 19:3.7035306 467:5.1779323 3353:7.023759 
0.02377084140357318 4:0.5 5:1.0 6:0.061193 11:0.09375 278:3.8596914 544:5.2891579 1178:6.5129333 1523:4.5670232 2370:6.3306118 3617:7.4292241 
0.08287838043257745 4:0.5 5:1.0 6:0.1565531 11:0.15625 54:3.4310234 121:3.9952369 177:4.1520793 236:3.3432478 767:5.6374646 1037:4.9443174 1775:4.986877 2267:6.3306118 
0.046568545630447836 4:0.5 5:1.0 6:0.093494 7:2.6293098 135:5.6374646 1241:5.6374646 
0.04962355422872795 4:0.5 5:1.0 6:0.0602272 11:0.125 34:4.5388523 468:4.2305509 1246:6.1764611 1400:5.414321 1460:6.5129333 2426:6.7360769 3093:6.1764611 
0.014859565842038654 4:0.5 5:1.0 6:0.0291531 457:4.9034954 2498:5.8197862 3628:7.4292241 
0.011001495618467243 4:0.5 5:1.0 6:0.0691593 22:1.2502431 2436:6.0429297 3631:6.7360769 
0.009479142083035729 4:0.5 5:1.0 6:0.0573575 11:0.0625 93:4.4087992 560:5.414321 1555:5.9251467 1911:4.986877 2385:6.7360769 
0.8971788636671681 4:0.5 5:1.0 6:0.1487919 16:2.1284098 595:5.3497825 687:4.07932 
0.0010657670630516553 4:0.5 5:1.0 6:0.0306283 11:0.03125 411:4.5388523 597:5.6374646 3633:7.4292241 3634:7.4292241 
0.04046469232483045 4:0.5 5:1.0 6:0.1236607 11:0.03125 16:2.1284098 687:4.07932 890:5.724476 1372:5.5574219 
0.8431525433338781 4:0.5 5:1.0 6:0.1470818 236:3.3432478 336:4.3847016 535:4.2722236 
0.002003394848304272 4:0.5 5:1.0 6:0.0091677 11:0.03125 864:13.4721538 3648:7.4292241 3649:7.4292241 
0.16259010071508823 4:0.5 5:1.0 6:0.020574 869:5.9251467 870:6.0429297 3650:6.7360769 
0.01687993497899367 4:0.5 5:1.0 6:0.1061809 11:0.3125 22:1.2502431 70:1.0 97:5.4833139 410:3.873876 474:5.126639 492:5.414321 643:5.2319995 848:4.2937298 1333:5.2319995 1573:7.023759 2500:6.1764611 2773:6.5129333 3335:6.5129333 3651:7.023759 
0.14501121644897505 4:0.5 5:1.0 6:0.1380363 11:0.0625 20:4.9443174 21:4.1905456 22:1.2502431 70:1.0 220:3.6915544 1558:6.7360769 
0.015398660976007596 4:0.5 5:1.0 6:0.0167215 63:5.3497825 3652:7.4292241 3653:7.023759 
3.7535049210466885E-4 4:0.5 5:1.0 6:0.0691347 11:0.15625 16:2.1284098 196:5.4833139 199:5.8197862 256:5.724476 1876:6.1764611 1877:6.1764611 3047:6.7360769 3654:7.4292241 
0.004560055620832866 4:0.5 5:1.0 6:0.0732619 11:0.3125 16:2.1284098 177:8.3041587 378:6.5129333 447:6.3306118 1136:6.1764611 1947:6.0429297 2230:7.023759 2822:6.5129333 3658:7.023759 3659:7.4292241 3660:7.023759 3661:7.4292241 
0.2718154470460502 4:0.5 5:1.0 6:0.0276903 11:0.03125 828:5.3497825 1199:5.6374646 2419:6.7360769 3662:7.023759 
0.006401277474822806 4:0.5 5:1.0 6:0.0920673 11:0.3125 12:4.0970196 353:4.5114533 399:4.8642747 410:3.873876 584:5.8197862 616:4.2305509 1333:5.2319995 2181:6.3306118 2273:6.5129333 2501:7.023759 3664:7.4292241 3665:7.4292241 3666:6.1764611 
0.022816622614624995 4:0.5 5:1.0 6:0.0519675 11:0.03125 85:5.414321 278:3.8596914 794:5.8197862 3667:7.4292241 
0.0018435189714029684 4:0.5 5:1.0 6:0.0570117 7:2.6293098 11:0.0625 112:4.9034954 3668:7.4292241 3669:7.4292241 3670:7.4292241 
0.1026616792102365 4:0.5 5:1.0 6:0.067891 346:4.2722236 468:4.2305509 1698:6.7360769 
0.00930370725646872 4:0.5 5:1.0 6:0.0574924 11:0.0625 16:2.1284098 2263:6.1764611 2264:6.7360769 2484:7.023759 2485:7.023759 
0.012316428473743172 4:0.5 5:1.0 6:0.0288596 285:5.9251467 1188:6.3306118 1745:5.414321 
0.06740100070275372 4:0.5 5:1.0 6:0.0859095 22:1.2502431 329:5.6374646 441:5.9251467 
0.3172483452127706 4:0.5 5:1.0 6:0.1730499 11:0.09375 22:1.2502431 23:4.7211739 223:4.4087992 224:3.715652 299:4.7211739 487:4.9443174 
0.7273731094783212 4:0.5 5:1.0 6:0.0784952 283:4.7901667 284:5.0313288 836:4.5388523 
0.0014621589386420097 4:0.5 5:1.0 6:0.0334007 11:0.09375 34:4.5388523 536:5.8197862 1314:5.8197862 2161:6.7360769 3698:7.4292241 3699:7.4292241 
0.018590481497467663 4:0.5 5:1.0 6:0.031321 11:0.03125 163:6.1764611 552:4.3157088 3711:7.4292241 3712:7.023759 
0.026626896509262178 4:0.5 6:0.1194897 11:0.03125 22:1.2502431 56:3.5374038 59:1.0 297:6.1764611 389:5.6374646 
0.004649829566305353 4:0.5 5:1.0 6:0.0409314 11:0.1875 31:4.688384 235:4.4087992 357:6.5129333 401:6.7360769 2635:6.3306118 3567:6.5129333 3721:7.4292241 3722:7.023759 3723:7.023759 
0.019226275453198154 4:0.5 5:1.0 6:0.0914532 11:0.0625 235:4.4087992 236:3.3432478 836:4.5388523 1224:5.9251467 2533:7.023759 
0.0036977610677129892 4:0.5 5:1.0 6:0.05343 11:0.0625 22:1.2502431 2053:5.0313288 3724:7.4292241 3725:7.4292241 3726:7.4292241 
0.00495156291972802 4:0.5 5:1.0 6:0.0281647 11:0.21875 349:3.9634882 585:6.3306118 597:5.6374646 2130:6.7360769 3727:14.8584481 3728:14.8584481 3729:7.4292241 3730:7.4292241 
0.1268871164962912 4:0.5 5:1.0 6:0.1690467 11:0.28125 22:1.2502431 66:3.6915544 181:6.0429297 211:5.3497825 236:6.6864955 299:4.7211739 306:6.3306118 678:6.0429297 858:4.2722236 1523:4.5670232 2614:6.3306118 
0.09438386636266281 4:0.5 5:1.0 6:0.0648625 11:0.125 130:5.126639 214:4.688384 487:4.9443174 2053:5.0313288 2282:6.1764611 3050:6.5129333 3525:6.3306118 
0.004959990473385658 4:0.5 5:1.0 6:0.0405837 11:0.1875 13:5.8197862 54:3.4310234 445:6.3306118 1547:7.023759 2822:6.5129333 3734:7.023759 3735:7.4292241 3736:7.023759 3737:7.4292241 
0.007001873149775294 4:0.5 5:1.0 6:0.020158 11:0.0625 457:4.9034954 573:6.7360769 2670:7.023759 3738:7.4292241 3739:7.4292241 
0.06592366058510207 4:0.5 5:1.0 6:0.1575108 22:1.2502431 54:3.4310234 389:5.6374646 
1.0 4:0.5 5:1.0 6:0.1064101 17:3.8596914 21:4.1905456 240:5.126639 
0.009348046526724399 4:0.5 5:1.0 6:0.0569049 11:0.125 238:3.6915544 548:4.7550754 751:5.724476 1364:5.4833139 3415:7.023759 3416:7.023759 3743:7.4292241 
0.04398156817164073 4:0.5 6:0.1200747 11:0.0625 22:1.2502431 56:3.5374038 59:1.0 534:4.4087992 1768:5.4833139 3745:7.4292241 
0.03966640042846089 4:0.5 5:1.0 6:0.0743184 11:0.03125 22:1.2502431 294:4.7550754 2615:6.1764611 3754:7.4292241 
0.004728777649295196 4:0.5 5:1.0 6:0.0806859 11:0.28125 22:1.2502431 552:4.3157088 790:6.0429297 818:5.2891579 968:5.5574219 1517:5.8197862 1716:5.2319995 2506:5.5574219 3611:6.1764611 3756:7.4292241 3757:7.4292241 3758:7.4292241 
0.003705468017577497 4:0.5 5:1.0 6:0.057234 11:0.15625 22:1.2502431 34:4.5388523 488:6.3306118 1230:6.3306118 3184:6.5129333 3485:7.023759 3763:7.4292241 3764:7.4292241 
0.0011716444753517696 4:0.5 5:1.0 6:0.0858771 11:0.09375 143:5.5574219 236:3.3432478 238:3.6915544 1412:5.9251467 2046:6.7360769 2735:6.7360769 
0.015319265926823372 4:0.5 5:1.0 6:0.109129 11:0.09375 16:2.1284098 317:4.1711275 608:4.5388523 813:4.6566353 3770:7.4292241 3771:7.023759 
0.43005592015147187 4:0.5 6:0.2033799 11:0.15625 22:1.2502431 56:3.5374038 59:1.0 177:4.1520793 246:3.6450344 406:4.8642747 407:4.7901667 420:4.986877 1037:4.9443174 
0.012346779192936776 4:0.5 5:1.0 6:0.1190828 11:0.09375 16:2.1284098 272:4.5960107 317:4.1711275 379:5.724476 595:5.3497825 1195:6.5129333 
1.0 4:0.5 5:1.0 6:0.0827724 283:4.7901667 284:5.0313288 592:4.3847016 
0.026366998365860466 4:0.5 5:1.0 6:0.0185329 11:0.03125 940:5.6374646 2556:7.023759 3777:7.4292241 3778:6.3306118 
0.04825945657480031 4:0.5 5:1.0 6:0.0909242 11:0.03125 235:4.4087992 592:4.3847016 716:3.5684944 3781:7.4292241 
0.008161264157102357 4:0.5 5:1.0 6:0.0333215 11:0.09375 349:3.9634882 1399:5.3497825 3782:7.4292241 3783:7.4292241 3784:7.4292241 3785:7.4292241 
0.02892066670180499 4:0.5 5:1.0 6:0.0956433 11:0.125 16:2.1284098 18:3.6915544 19:3.7035306 153:6.3306118 1358:13.0258667 1981:6.7360769 
0.02129493150705564 4:0.5 5:1.0 6:0.0893451 11:0.09375 25:4.9443174 54:3.4310234 353:4.5114533 354:5.1779323 1535:6.3306118 2003:6.5129333 
1.0 4:0.5 5:1.0 6:0.0981768 7:2.6293098 797:5.0313288 1612:6.0429297 
5.794304819975755E-4 4:0.5 5:1.0 6:0.0363147 11:0.15625 235:4.4087992 794:5.8197862 1208:7.023759 2640:6.1764611 3094:5.8197862 3790:6.7360769 3791:7.4292241 3792:7.4292241 
1.0 4:0.5 5:1.0 6:0.0438301 51:5.2319995 185:6.1764611 967:4.9443174 
0.03298073495525291 4:0.5 6:0.1682714 22:1.2502431 56:3.5374038 59:1.0 171:5.126639 
0.02295061391996039 4:0.5 5:1.0 6:0.075608 11:0.09375 22:1.2502431 294:4.7550754 1297:5.8197862 1465:6.3306118 1979:6.1764611 2396:6.5129333 
0.09890822064084973 4:0.5 5:1.0 6:0.0946094 11:0.125 22:1.2502431 93:4.4087992 182:5.8197862 353:4.5114533 387:4.8642747 3799:7.023759 3800:7.4292241 
0.006594592623186016 4:0.5 5:1.0 6:0.0670005 11:0.09375 16:2.1284098 196:5.4833139 199:5.8197862 923:5.724476 3802:7.4292241 3803:7.4292241 
0.03811838958674694 4:0.5 5:1.0 6:0.0923352 11:0.09375 12:4.0970196 349:3.9634882 534:4.4087992 848:4.2937298 1627:7.023759 3804:7.4292241 
0.016193357803042013 4:0.5 5:1.0 6:0.0797304 11:0.03125 16:2.1284098 1184:6.0429297 1215:6.5129333 1216:5.6374646 
0.08307239099783983 4:0.5 5:1.0 6:0.0823912 22:1.2502431 49:5.2319995 636:6.7360769 
0.003156360134315166 4:0.5 5:1.0 6:0.0225821 85:5.414321 414:5.9251467 3815:7.4292241 
0.003914236855618553 4:0.5 5:1.0 6:0.0449891 11:0.03125 22:1.2502431 3816:7.4292241 3817:7.023759 3818:7.4292241 
0.006345194019953413 4:0.5 5:1.0 6:0.043491 11:0.125 16:2.1284098 1995:7.023759 2285:6.3306118 3819:7.4292241 3820:7.4292241 3821:7.4292241 3822:7.4292241 
0.0209836582256509 4:0.5 5:1.0 6:0.0261641 11:0.15625 114:5.6374646 1133:6.0429297 1502:6.7360769 1784:5.4833139 3342:7.023759 3823:7.4292241 3824:7.4292241 3825:7.023759 
0.04378104826775414 4:0.5 5:1.0 6:0.1260344 7:2.6293098 11:0.09375 103:3.5272514 309:4.6258637 511:5.2319995 593:5.126639 3826:7.4292241 
0.005736325753230776 4:0.5 5:1.0 6:0.0319017 11:0.0625 238:3.6915544 2332:7.023759 3829:7.4292241 3830:7.023759 3831:7.4292241 
0.026569242204376474 4:0.5 5:1.0 6:0.0247145 649:6.0429297 1036:5.5574219 3832:6.7360769 
0.010241023808321535 4:0.5 5:1.0 6:0.0441601 11:0.125 22:1.2502431 98:5.724476 1489:7.023759 2039:6.5129333 3837:7.4292241 3838:7.4292241 3839:7.4292241 
0.02056363812103173 4:0.5 5:1.0 6:0.0622123 11:0.1875 432:9.1340464 664:10.699565 716:3.5684944 3188:7.023759 3843:7.4292241 3844:7.4292241 3845:7.4292241 
0.012541465434457433 4:0.5 5:1.0 6:0.0202191 11:0.0625 130:5.126639 721:6.5129333 3846:7.4292241 3847:6.7360769 3848:7.4292241 
0.014671453266791314 4:0.5 5:1.0 6:0.0135386 11:0.03125 476:5.9251467 3078:6.5129333 3849:7.4292241 3850:7.4292241 
0.04706638614751818 4:0.5 5:1.0 6:0.0850034 11:0.125 278:3.8596914 309:4.6258637 407:4.7901667 511:5.2319995 818:5.2891579 2107:6.0429297 3851:7.023759 
0.13154028125236072 4:0.5 5:1.0 6:0.0782167 22:1.2502431 1655:5.414321 2401:6.7360769 
0.04105938733678513 4:0.5 5:1.0 6:0.0595916 11:0.0625 22:1.2502431 1128:5.3497825 2394:6.1764611 3859:7.4292241 3860:7.023759 
0.0058978040291529634 4:0.5 5:1.0 6:0.1115263 11:0.3125 16:2.1284098 223:4.4087992 224:3.715652 235:4.4087992 242:5.126639 531:6.7360769 544:5.2891579 1196:6.0429297 1266:7.023759 1520:5.4833139 1602:6.5129333 2513:6.7360769 3860:7.023759 
0.2693450236511426 4:0.5 5:1.0 6:0.1024662 22:1.2502431 336:4.3847016 1414:6.7360769 
0.08278738839394952 4:0.5 5:1.0 6:0.0311418 482:5.724476 1253:4.986877 3863:7.023759 
0.10817657094938514 4:0.5 5:1.0 6:0.1048819 11:0.21875 22:1.2502431 66:3.6915544 180:5.0313288 387:4.8642747 1155:5.414321 1434:5.414321 1570:6.1764611 1745:5.414321 3864:7.023759 3865:7.4292241 
0.010101200479953285 4:0.5 5:1.0 6:0.0554968 11:0.09375 72:4.9443174 299:4.7211739 317:4.1711275 1537:6.5129333 1682:7.023759 3866:7.4292241 
0.013626744551264598 4:0.5 5:1.0 6:0.0254431 11:0.125 349:3.9634882 2495:7.023759 3874:7.4292241 3875:7.023759 3876:7.4292241 3877:7.4292241 3878:7.4292241 
0.013111735231452145 4:0.5 5:1.0 6:0.0898864 11:0.21875 22:1.2502431 113:6.1764611 246:3.6450344 354:5.1779323 492:5.414321 502:5.8197862 742:6.1764611 846:6.1764611 1258:6.5129333 3885:7.4292241 
0.004320108798791059 4:0.5 5:1.0 6:0.0209848 11:0.0625 597:5.6374646 1708:5.414321 3886:7.4292241 3887:7.4292241 3888:7.4292241 
0.003413898490728828 4:0.5 5:1.0 6:0.0591257 11:0.125 16:2.1284098 72:4.9443174 863:6.1764611 1518:6.7360769 1519:7.023759 3891:7.4292241 3892:7.4292241 
4.181691860101685E-4 4:0.5 5:1.0 6:0.1008936 22:1.2502431 616:4.2305509 3895:7.023759 
0.0119061423099308 4:0.5 5:1.0 6:0.0905493 11:0.03125 16:2.1284098 244:4.2511702 1455:6.3306118 3910:7.4292241 
0.03636970515559283 4:0.5 5:1.0 6:0.1796409 11:0.0625 16:2.1284098 17:3.8596914 18:3.6915544 19:3.7035306 1978:7.023759 
0.013496272297807197 4:0.5 5:1.0 6:0.0715146 11:0.0625 22:1.2502431 422:5.8197862 1671:6.5129333 2057:4.7211739 3913:7.4292241 
0.009128282184228403 4:0.5 5:1.0 6:0.0209635 11:0.0625 53:5.6374646 422:5.8197862 2356:7.023759 2850:7.023759 3914:7.4292241 
0.03261470546191073 4:0.5 5:1.0 6:0.0198966 11:0.03125 1123:5.1779323 2447:6.7360769 3279:7.023759 3915:7.4292241 
0.04537942043517677 4:0.5 5:1.0 6:0.0686925 11:0.03125 114:5.6374646 278:3.8596914 848:4.2937298 3919:7.4292241 
0.34483811190150404 4:0.5 5:1.0 6:0.0567254 11:0.03125 414:5.9251467 627:5.3497825 699:4.5670232 1398:5.414321 
0.09446446565340413 4:0.5 5:1.0 6:0.1054485 11:0.03125 22:1.2502431 432:4.5670232 664:5.3497825 2436:6.0429297 
0.01267116201684744 4:0.5 5:1.0 6:0.0710139 11:0.125 34:4.5388523 82:4.986877 90:4.3611711 278:3.8596914 3920:7.4292241 3921:7.023759 3922:7.4292241 
0.672712523357431 4:0.5 5:1.0 6:0.0667395 8:4.6566353 80:4.8265344 627:5.3497825 
0.024638386933734727 4:0.5 5:1.0 6:0.1017799 11:0.21875 13:5.8197862 22:1.2502431 54:3.4310234 664:5.3497825 858:4.2722236 1080:6.7360769 1179:5.6374646 1220:6.5129333 2669:6.1764611 3937:7.4292241 
0.018868694641509157 4:0.5 5:1.0 6:0.0156953 647:5.2891579 3938:7.4292241 3939:7.4292241 
0.08886371548435833 4:0.5 5:1.0 6:0.0722929 244:4.2511702 349:3.9634882 2265:7.023759 
0.021042227024932948 4:0.5 6:0.0669973 11:0.0625 56:3.5374038 59:1.0 218:4.4588096 219:6.1764611 1521:5.8197862 3944:7.4292241 
0.07993022018828064 4:0.5 5:1.0 6:0.098391 11:0.0625 22:1.2502431 410:3.873876 1611:5.2319995 2107:6.0429297 3511:7.023759 
0.005399094018927085 4:0.5 5:1.0 6:0.0142675 1273:5.6374646 2518:7.023759 3949:7.4292241 
0.020707975453763967 4:0.5 6:0.1004364 11:0.03125 22:1.2502431 56:3.5374038 59:1.0 1921:7.023759 3126:6.1764611 
0.003845243949682737 4:0.5 5:1.0 6:0.005473 3967:7.023759 3968:7.4292241 3969:7.4292241 
0.018537767874063034 4:0.5 5:1.0 6:0.1444048 22:1.2502431 25:4.9443174 848:4.2937298 
0.026123963251028396 4:0.5 5:1.0 6:0.1136265 11:0.125 22:1.2502431 54:3.4310234 294:4.7550754 796:5.4833139 942:5.9251467 1612:6.0429297 2366:6.5129333 
0.0351701660782946 4:0.5 5:1.0 6:0.1708899 11:0.0625 22:1.2502431 43:4.8265344 223:4.4087992 224:3.715652 648:4.9034954 
0.04229476453064131 4:0.5 5:1.0 6:0.0303972 11:0.0625 187:5.414321 250:5.9251467 1008:5.724476 1120:6.3306118 3980:7.4292241 
0.40932727399038527 4:0.5 5:1.0 6:0.1337256 11:0.03125 22:1.2502431 57:4.986877 66:3.6915544 2054:5.9251467 
0.13029113172864978 4:0.5 5:1.0 6:0.1353259 11:0.0625 22:1.2502431 223:4.4087992 224:3.715652 225:4.7211739 3216:7.023759 
0.004142467288355992 4:0.5 5:1.0 6:0.0515843 11:0.0625 34:4.5388523 70:1.0 220:3.6915544 3050:6.5129333 3985:7.4292241 3986:7.4292241 
0.013243844187932282 4:0.5 5:1.0 6:0.042246 11:0.03125 411:4.5388523 647:5.2891579 780:5.9251467 3987:7.4292241 
0.1620979639311797 4:0.5 5:1.0 6:0.121373 22:1.2502431 77:4.7550754 1055:5.2891579 
0.8831212100298086 4:0.5 5:1.0 6:0.1073812 11:0.03125 22:1.2502431 317:4.1711275 370:6.5129333 466:5.2319995 
0.03999566221123795 4:0.5 5:1.0 6:0.0853234 11:0.09375 103:3.5272514 399:4.8642747 534:4.4087992 797:5.0313288 2887:6.7360769 3992:7.023759 
0.41400452471601235 4:0.5 5:1.0 6:0.1022677 22:1.2502431 796:5.4833139 1385:5.2891579 
0.07070394674244557 4:0.5 5:1.0 6:0.031155 380:6.3306118 507:6.3306118 657:4.9443174 
0.23601382651433567 4:0.5 5:1.0 6:0.099924 22:1.2502431 90:4.3611711 4003:6.7360769 
0.13551332534076235 4:0.5 5:1.0 6:0.1334068 16:2.1284098 687:4.07932 799:5.9251467 
0.01799762958896453 4:0.5 5:1.0 6:0.0673046 11:0.03125 22:1.2502431 242:5.126639 1730:6.7360769 3021:7.023759 
0.01805975976729774 4:0.5 5:1.0 6:0.0176423 11:0.03125 322:6.0429297 1095:6.0429297 3284:6.7360769 4009:7.4292241 
0.016036926830056707 4:0.5 5:1.0 6:0.0152059 11:0.03125 513:6.3306118 587:6.1764611 4016:7.023759 4017:7.4292241 
0.38023334706586365 4:0.5 5:1.0 6:0.0848752 278:3.8596914 535:4.2722236 1295:6.1764611 
0.007998729648223582 4:0.5 6:0.0645974 11:0.03125 22:1.2502431 2036:5.3497825 2038:1.0 4011:7.023759 4018:6.7360769 
0.010330596536696695 4:0.5 5:1.0 6:0.0253183 11:0.0625 95:5.3497825 1403:6.3306118 1831:5.9251467 3466:7.023759 4021:7.4292241 
0.061422036225220834 4:0.5 5:1.0 6:0.0769395 11:0.03125 22:1.2502431 42:5.5574219 590:5.4833139 2450:6.7360769 
0.08320488505910041 4:0.5 5:1.0 6:0.0550817 121:3.9952369 467:5.1779323 4035:7.023759 
0.0055638840074696645 4:0.5 5:1.0 6:0.0600971 11:0.03125 280:5.6374646 317:4.1711275 836:4.5388523 4044:7.4292241 
0.017661413611068953 4:0.5 5:1.0 6:0.0890321 11:0.0625 278:3.8596914 468:4.2305509 1445:6.7360769 1716:5.2319995 2053:5.0313288 
0.008410386466475366 4:0.5 5:1.0 6:0.0305091 11:0.09375 1145:5.724476 1333:5.2319995 1338:6.1764611 1645:6.3306118 4048:7.023759 4049:7.023759 
0.47687841418680765 4:0.5 5:1.0 6:0.15134 11:0.0625 22:1.2502431 223:4.4087992 224:3.715652 848:4.2937298 1435:6.5129333 
0.03866505062740748 4:0.5 5:1.0 6:0.0710421 11:0.09375 278:3.8596914 468:4.2305509 1413:7.023759 1523:4.5670232 3883:6.3306118 4055:7.4292241 
0.0218549140624441 4:0.5 5:1.0 6:0.0159232 11:0.03125 172:5.724476 906:7.023759 4056:6.7360769 4057:7.4292241 
0.00786912713092518 4:0.5 5:1.0 6:0.0342195 11:0.125 66:3.6915544 976:5.8197862 2673:7.023759 4058:7.4292241 4059:7.4292241 4060:7.4292241 4061:7.023759 
0.8073549886014537 4:0.5 5:1.0 6:0.1697908 16:2.1284098 317:4.1711275 813:4.6566353 
0.03183151592532793 4:0.5 5:1.0 6:0.0751928 11:0.15625 177:4.1520793 246:3.6450344 360:5.6374646 367:5.126639 1761:6.5129333 2072:5.9251467 2698:6.5129333 4064:7.4292241 
0.010074655188724106 4:0.5 5:1.0 6:0.0400738 11:0.0625 22:1.2502431 3283:7.023759 4065:7.4292241 4066:7.4292241 4067:7.4292241 
0.003088954442671853 4:0.5 5:1.0 6:0.0083825 950:6.3306118 4074:7.4292241 4075:7.4292241 
0.005606322261600983 4:0.5 5:1.0 6:0.0278582 11:0.09375 80:4.8265344 379:5.724476 1409:7.023759 1782:6.7360769 4026:7.023759 4087:7.4292241 
1.0 4:0.5 5:1.0 6:0.0827724 283:4.7901667 284:5.0313288 592:4.3847016 
1.0 4:0.5 5:1.0 6:0.0970938 7:2.6293098 11:0.03125 119:5.414321 432:4.5670232 2905:6.7360769 
0.039729584210403825 4:0.5 5:1.0 6:0.0707341 22:1.2502431 1457:5.414321 4102:7.4292241 
0.014086175048464005 4:0.5 5:1.0 6:0.0144052 70:1.0 1781:6.1764611 4018:6.7360769 4079:7.023759 
0.04648859716828192 4:0.5 5:1.0 6:0.0360363 11:0.0625 310:5.126639 1376:7.023759 1472:6.1764611 1473:6.1764611 1883:5.414321 
0.003217396457899566 4:0.5 5:1.0 6:0.0465397 11:0.03125 22:1.2502431 106:6.7360769 4112:7.4292241 4113:7.4292241 
0.019891493119202377 4:0.5 5:1.0 6:0.0944635 11:0.0625 16:2.1284098 238:3.6915544 585:6.3306118 710:5.9251467 4116:7.4292241 
0.0017558553685990098 4:0.5 5:1.0 6:0.0070417 11:0.03125 2461:7.023759 4119:7.023759 4120:7.4292241 4121:7.4292241 
0.33877700171693226 3:3.9634882 4:0.5 5:1.0 6:0.1235695 11:0.125 22:1.2502431 302:5.2319995 432:4.5670232 1319:5.2891579 2053:5.0313288 4122:7.023759 
0.651226249667669 4:0.5 5:1.0 6:0.035979 1123:5.1779323 1312:5.9251467 1555:5.9251467 
0.00938252106566057 3:3.9634882 4:0.5 5:1.0 6:0.1367306 11:0.125 16:2.1284098 18:3.6915544 19:3.7035306 2263:6.1764611 2486:6.5129333 4136:7.4292241 
0.14067645891141897 4:0.5 5:1.0 6:0.0859032 22:1.2502431 1457:5.414321 1979:6.1764611 
0.011730657722178019 4:0.5 5:1.0 6:0.0584072 11:0.125 552:4.3157088 716:3.5684944 1252:5.9251467 2669:6.1764611 3303:6.7360769 3869:7.023759 4141:7.4292241 
0.03180930546050943 4:0.5 5:1.0 6:0.0481192 11:0.0625 299:4.7211739 817:5.1779323 1493:6.5129333 1517:5.8197862 1904:6.3306118 
0.037640567760187676 4:0.5 5:1.0 6:0.0616084 11:0.03125 22:1.2502431 1221:6.1764611 1645:6.3306118 2780:6.7360769 
0.0012471502088521307 4:0.5 5:1.0 6:0.0237703 8:4.6566353 11:0.125 1386:5.8197862 2365:7.023759 4154:7.4292241 4155:7.4292241 4156:7.4292241 4157:7.4292241 
0.022103606009520486 4:0.5 5:1.0 6:0.0591869 11:0.3125 238:3.6915544 281:7.023759 410:3.873876 435:6.7360769 587:12.3529222 1167:5.126639 1386:5.8197862 1888:5.5574219 3510:6.7360769 4158:14.0475179 4159:7.4292241 
0.013527925462901534 4:0.5 5:1.0 6:0.0540056 11:0.03125 22:1.2502431 254:6.7360769 937:7.023759 2039:6.5129333 
0.018380170874261133 1:4.3847016 4:0.5 5:1.0 6:0.0400097 11:0.03125 1364:5.4833139 2287:6.3306118 4163:7.4292241 
0.043501367293577106 4:0.5 6:0.1366957 11:0.0625 22:1.2502431 56:3.5374038 59:1.0 592:4.3847016 836:4.5388523 4165:7.4292241 
1.0 4:0.5 6:0.0841791 56:3.5374038 59:1.0 592:4.3847016 917:6.5129333 
1.0 4:0.5 6:0.0870951 22:1.2502431 326:6.1764611 2036:5.3497825 2038:1.0 
0.004821735612785275 4:0.5 5:1.0 6:0.0637213 11:0.0625 22:1.2502431 316:5.8197862 457:4.9034954 4170:7.4292241 4171:7.4292241 
0.1129128777325024 4:0.5 5:1.0 6:0.0935573 22:1.2502431 1227:5.724476 1885:5.414321 
0.01587206348041463 4:0.5 5:1.0 6:0.1084391 7:2.6293098 11:0.0625 103:3.5272514 593:5.126639 946:6.1764611 4183:7.023759 
0.01906048851806997 4:0.5 5:1.0 6:0.0223713 11:0.15625 517:5.8197862 544:5.2891579 825:6.1764611 4204:7.4292241 4205:7.4292241 4206:7.4292241 4207:7.023759 4208:7.4292241 
0.06018720935900286 4:0.5 5:1.0 6:0.0953201 11:0.03125 22:1.2502431 535:4.2722236 873:5.5574219 4210:7.023759 
0.006202815207035492 4:0.5 6:0.0956853 11:0.0625 22:1.2502431 56:3.5374038 59:1.0 1130:6.0429297 1595:5.6374646 4215:7.4292241 
0.008237312031763588 4:0.5 5:1.0 6:0.0509426 11:0.03125 246:3.6450344 435:6.7360769 1888:5.5574219 2019:7.023759 
0.002264100804471625 4:0.5 5:1.0 6:0.0796856 22:1.2502431 242:5.126639 3817:7.023759 
0.047882222716304684 4:0.5 5:1.0 6:0.1036487 9:5.2891579 11:0.03125 244:4.2511702 284:5.0313288 349:3.9634882 
1.0 4:0.5 5:1.0 6:0.1546336 11:0.0625 22:1.2502431 121:3.9952369 177:4.1520793 385:5.4833139 1037:4.9443174 
0.043420082575297766 4:0.5 5:1.0 6:0.0398369 11:0.09375 343:4.2937298 557:4.8265344 1565:6.5129333 2666:7.023759 4226:7.023759 4227:7.4292241 
0.3621312572531927 4:0.5 5:1.0 6:0.0795218 11:0.03125 22:1.2502431 180:5.0313288 826:5.6374646 894:7.023759 
0.005240019906805859 4:0.5 5:1.0 6:0.0440412 11:0.15625 22:1.2502431 779:6.3306118 878:5.9251467 2939:7.023759 3720:6.5129333 4245:7.4292241 4246:7.4292241 4247:7.4292241 
2.4200874150689196E-4 4:0.5 5:1.0 6:0.0624429 11:0.21875 54:3.4310234 282:6.3306118 315:4.9443174 369:6.0429297 542:6.1764611 981:6.5129333 1090:5.5574219 1402:5.724476 4252:7.4292241 4253:7.4292241 
0.13139574503498005 4:0.5 5:1.0 6:0.0623642 11:0.0625 179:5.6374646 278:3.8596914 430:6.5129333 985:4.688384 4077:6.7360769 
0.017081179157094 4:0.5 5:1.0 6:0.0825787 7:2.6293098 11:0.125 389:5.6374646 410:3.873876 905:6.7360769 1203:6.5129333 1506:6.7360769 2031:6.1764611 
0.010972163455464735 4:0.5 5:1.0 6:0.0741593 7:2.6293098 11:0.03125 49:5.2319995 1840:5.9251467 4254:7.4292241 
0.047617756934903825 4:0.5 5:1.0 6:0.0476253 72:4.9443174 150:5.2319995 1200:5.8197862 
0.03486270858828625 4:0.5 5:1.0 6:0.0432643 687:4.07932 889:6.5129333 1939:6.3306118 
0.019462976825449934 4:0.5 5:1.0 6:0.1077176 22:1.2502431 66:3.6915544 4256:7.4292241 
0.004360410289037489 4:0.5 5:1.0 6:0.0327804 11:0.03125 411:4.5388523 780:5.9251467 1404:6.5129333 4257:7.4292241 
0.02359964771906852 4:0.5 5:1.0 6:0.0787876 11:0.40625 103:7.0545028 365:5.0778488 370:6.5129333 407:9.5803335 958:6.7360769 966:6.7360769 1139:5.4833139 2361:5.9251467 3666:6.1764611 4221:7.023759 4258:7.4292241 4259:7.4292241 4260:7.4292241 4261:6.7360769 
0.004323686833390413 4:0.5 5:1.0 6:0.0501521 11:0.03125 22:1.2502431 2305:6.1764611 4262:7.4292241 4263:7.4292241 
0.037389569733961465 4:0.5 5:1.0 6:0.0927546 11:0.125 16:2.1284098 140:4.8642747 315:4.9443174 425:4.6258637 1165:5.724476 4267:7.4292241 4268:7.4292241 
0.007249937297117097 4:0.5 5:1.0 6:0.044965 11:0.125 16:2.1284098 1923:6.5129333 2115:6.7360769 3307:7.023759 4269:7.4292241 4270:7.4292241 4271:7.4292241 
0.038936530322028866 4:0.5 5:1.0 6:0.0513307 11:0.0625 165:5.2891579 346:4.2722236 557:4.8265344 2040:7.023759 4272:7.4292241 
0.008467973344073803 4:0.5 5:1.0 6:0.0345736 11:0.03125 407:4.7901667 963:7.023759 1416:5.126639 4273:7.4292241 
0.08482387370256743 4:0.5 5:1.0 6:0.0926872 11:0.03125 80:4.8265344 235:4.4087992 236:3.3432478 4274:7.023759 
0.01352932327143746 4:0.5 5:1.0 6:0.0636919 11:0.53125 29:5.2891579 38:6.7360769 203:5.414321 235:4.4087992 410:3.873876 607:5.724476 818:5.2891579 1042:10.8286421 1595:5.6374646 1596:7.023759 1975:7.023759 1989:6.0429297 2548:7.023759 3682:7.023759 3921:7.023759 4278:14.8584481 4279:7.023759 4280:7.4292241 
0.0450330344849211 4:0.5 5:1.0 6:0.0770156 7:2.6293098 1768:5.4833139 4289:7.023759 
0.02290604694836781 4:0.5 6:0.1227578 11:0.0625 22:1.2502431 56:3.5374038 59:1.0 236:3.3432478 4291:7.023759 4292:7.4292241 
0.020515215759356963 4:0.5 5:1.0 6:0.078591 11:0.0625 22:1.2502431 314:5.1779323 534:4.4087992 4293:7.023759 4294:7.4292241 
0.07785288818044143 4:0.5 5:1.0 6:0.0694925 11:0.03125 16:2.1284098 162:6.3306118 1426:6.1764611 4297:6.7360769 
0.008010301460334405 4:0.5 5:1.0 6:0.0258831 11:0.09375 406:4.8642747 465:6.5129333 782:6.3306118 3632:7.023759 4008:7.023759 4300:7.4292241 
0.010528640574289944 4:0.5 5:1.0 6:0.0403456 11:0.09375 487:4.9443174 848:4.2937298 1352:6.5129333 1428:6.3306118 4301:7.4292241 4302:7.4292241 
1.0 4:0.5 5:1.0 6:0.0900116 22:1.2502431 365:5.0778488 3801:6.3306118 
0.00825924230177861 4:0.5 5:1.0 6:0.0463746 11:0.0625 16:2.1284098 4213:7.023759 4305:7.4292241 4306:7.4292241 4307:7.4292241 
0.014276523489845516 4:0.5 5:1.0 6:0.0783943 7:2.6293098 593:5.126639 4316:7.4292241 
0.1560270974338472 4:0.5 5:1.0 6:0.137951 22:1.2502431 66:3.6915544 944:5.9251467 
0.02180470839245217 4:0.5 5:1.0 6:0.0324132 349:3.9634882 4317:7.4292241 4318:7.4292241 
0.042413027628297656 4:0.5 5:1.0 6:0.0642981 11:0.1875 96:4.0970196 146:5.6374646 246:3.6450344 369:6.0429297 392:6.5129333 1169:6.5129333 1741:6.1764611 2393:7.023759 4324:7.4292241 
0.043501958518836155 4:0.5 5:1.0 6:0.1054524 11:0.09375 16:2.1284098 103:3.5272514 425:4.6258637 427:6.1764611 831:6.7360769 4339:7.4292241 
0.0036395809674687027 4:0.5 5:1.0 6:0.0492661 11:0.03125 85:5.414321 336:4.3847016 1823:5.724476 3673:7.023759 
0.10511313379772835 4:0.5 6:0.1406513 22:1.2502431 56:3.5374038 59:1.0 1924:6.0429297 
0.03194444275384327 4:0.5 5:1.0 6:0.085712 11:0.0625 18:3.6915544 19:3.7035306 422:5.8197862 1202:6.7360769 1348:5.8197862 
0.025349795181364616 4:0.5 5:1.0 6:0.0318624 11:0.09375 801:5.9251467 1217:6.1764611 1520:5.4833139 1533:5.9251467 1727:6.3306118 4349:7.4292241 
